{"learner":{"attributes":{"scikit_learn":"{\"use_label_encoder\": true, \"n_estimators\": 200, \"objective\": \"binary:logistic\", \"max_depth\": 4, \"learning_rate\": 0.02, \"verbosity\": null, \"booster\": null, \"tree_method\": null, \"gamma\": 0, \"min_child_weight\": null, \"max_delta_step\": null, \"subsample\": 0.6, \"colsample_bytree\": 0.4, \"colsample_bylevel\": null, \"colsample_bynode\": null, \"reg_alpha\": null, \"reg_lambda\": 1.5, \"scale_pos_weight\": null, \"base_score\": null, \"missing\": NaN, \"num_parallel_tree\": null, \"kwargs\": {}, \"random_state\": 911, \"n_jobs\": null, \"monotone_constraints\": null, \"interaction_constraints\": null, \"importance_type\": \"gain\", \"gpu_id\": null, \"validate_parameters\": null, \"classes_\": [0, 1], \"n_classes_\": 2, \"_le\": {\"classes_\": [0, 1]}, \"_features_count\": 19, \"n_features_in_\": 19, \"type\": \"XGBClassifier\"}"},"gradient_booster":{"model":{"gbtree_model_param":{"num_trees":"200","size_leaf_vector":"0"},"tree_info":[0,0,0,0,0,0,0,0,0,0,0,0,0,0,0,0,0,0,0,0,0,0,0,0,0,0,0,0,0,0,0,0,0,0,0,0,0,0,0,0,0,0,0,0,0,0,0,0,0,0,0,0,0,0,0,0,0,0,0,0,0,0,0,0,0,0,0,0,0,0,0,0,0,0,0,0,0,0,0,0,0,0,0,0,0,0,0,0,0,0,0,0,0,0,0,0,0,0,0,0,0,0,0,0,0,0,0,0,0,0,0,0,0,0,0,0,0,0,0,0,0,0,0,0,0,0,0,0,0,0,0,0,0,0,0,0,0,0,0,0,0,0,0,0,0,0,0,0,0,0,0,0,0,0,0,0,0,0,0,0,0,0,0,0,0,0,0,0,0,0,0,0,0,0,0,0,0,0,0,0,0,0,0,0,0,0,0,0,0,0,0,0,0,0,0,0,0,0,0,0],"trees":[{"base_weights":[-1.5599716E0,-1.9241706E0,-4.6666667E-1,-1.9350525E0,-2.857143E-1,-1.3103448E0,-6.4E-2,-0E0,-4E-1,-1.4455446E0,-2.857143E-1,-1.9178082E-1,7.027027E-1,-1.5402299E0,-6E-1,3.3333334E-1,-6.666667E-1,9.3457945E-2,-4.4067797E-1,1E0,3.7037036E-1],"categories":[],"categories_nodes":[],"categories_segments":[],"categories_sizes":[],"default_left":[true,true,true,false,true,true,true,false,false,true,true,true,true,false,false,false,false,false,false,false,false],"id":0,"left_children":[1,3,5,-1,7,9,11,-1,-1,13,15,17,19,-1,-1,-1,-1,-1,-1,-1,-1],"loss_changes":[1.3891217E2,3.87323E0,3.0449102E1,0E0,1.1428571E-1,3.3978424E0,6.325266E0,0E0,0E0,6.353264E-1,1.5714285E0,3.94876E0,3.5835838E-1,0E0,0E0,0E0,0E0,0E0,0E0,0E0,0E0],"parents":[2147483647,0,0,1,1,2,2,4,4,5,5,6,6,9,9,10,10,11,11,12,12],"right_children":[2,4,6,-1,8,10,12,-1,-1,14,16,18,20,-1,-1,-1,-1,-1,-1,-1,-1],"split_conditions":[5E-1,1.55E1,2.965E1,-3.870105E-2,2.95E1,1.05E1,1.15E1,-0E0,-8E-3,2.565E1,2.05E1,5E-1,5E-1,-3.0804597E-2,-1.2E-2,6.666667E-3,-1.3333334E-2,1.8691588E-3,-8.813559E-3,2E-2,7.407407E-3],"split_indices":[12,5,2,0,2,5,5,0,0,2,2,9,9,0,0,0,0,0,0,0,0],"split_type":[0,0,0,0,0,0,0,0,0,0,0,0,0,0,0,0,0,0,0,0,0],"sum_hessian":[3.5075E2,2.6225E2,8.85E1,2.6025E2,2E0,2.75E1,6.1E1,1E0,1E0,2.375E1,3.75E0,5.325E1,7.75E0,2.025E1,3.5E0,1.5E0,2.25E0,2.525E1,2.8E1,2.5E0,5.25E0],"tree_param":{"num_deleted":"0","num_feature":"19","num_nodes":"21","size_leaf_vector":"0"}},{"base_weights":[-1.5384363E0,-1.717217E0,1.3050073E-1,-1.8621745E0,-1.3335527E0,-1.8788743E-1,5.4258585E-1,-1.8703645E0,-3.1890878E-1,-1.3642973E0,-3.8933864E-1,-3.024671E-1,6.65472E-2,7.5870717E-1,1.7138824E-3,-6.543763E-1,1.844109E-1,-4.8758394E-1,2.047984E-1,6.1069745E-1,-8.559257E-1,1.0377984E0,1.8388882E-1,-2.2109549E-1,3.3507112E-1],"categories":[],"categories_nodes":[],"categories_segments":[],"categories_sizes":[],"default_left":[true,true,true,true,true,true,true,false,false,false,true,true,true,true,true,false,false,false,false,false,false,false,false,false,false],"id":1,"left_children":[1,3,5,7,9,11,13,-1,-1,-1,15,17,19,21,23,-1,-1,-1,-1,-1,-1,-1,-1,-1,-1],"loss_changes":[1.04736694E2,1.3857666E1,4.777744E0,1.9576416E0,1.8733063E0,6.4239395E-1,1.839108E0,0E0,0E0,0E0,9.4125426E-1,1.5348284E0,4.674238E0,1.5185184E0,5.56772E-1,0E0,0E0,0E0,0E0,0E0,0E0,0E0,0E0,0E0,0E0],"parents":[2147483647,0,0,1,1,2,2,3,3,4,4,5,5,6,6,10,10,11,11,12,12,13,13,14,14],"right_children":[2,4,6,8,10,12,14,-1,-1,-1,16,18,20,22,24,-1,-1,-1,-1,-1,-1,-1,-1,-1,-1],"split_conditions":[4.225E0,1.505E0,7.2650003E0,5E-1,5E-1,5E-1,5E-1,-3.740729E-2,-6.3781757E-3,-2.7285945E-2,3.2150002E0,5E-1,5E-1,5E-1,1.2495E1,-1.3087526E-2,3.6882178E-3,-9.751678E-3,4.095968E-3,1.2213949E-2,-1.7118514E-2,2.0755967E-2,3.6777763E-3,-4.42191E-3,6.7014224E-3],"split_indices":[3,3,3,17,17,4,8,0,0,0,3,8,8,4,3,0,0,0,0,0,0,0,0,0,0],"split_type":[0,0,0,0,0,0,0,0,0,0,0,0,0,0,0,0,0,0,0,0,0,0,0,0,0],"sum_hessian":[3.4839847E2,3.1464908E2,3.374939E1,2.241713E2,9.04778E1,1.9499573E1,1.4249817E1,2.2267165E2,1.4996376E0,8.697834E1,3.499452E0,1.324967E1,6.2499027E0,9.749853E0,4.4999633E0,2.24952E0,1.2499319E0,9.749849E0,3.4998214E0,4.2499185E0,1.9999843E0,5.749934E0,3.9999187E0,2.9999788E0,1.4999847E0],"tree_param":{"num_deleted":"0","num_feature":"19","num_nodes":"25","size_leaf_vector":"0"}},{"base_weights":[-1.5195421E0,-1.8556995E0,-5.091838E-1,-1.8661516E0,-1.3499641E-1,-7.744131E-1,8.523069E-1,-1.8800509E0,-8.3055454E-1,-1.0962439E0,6.6498496E-2,9.606433E-1,-1.8380429E-1,-1.0679101E0,-1.1839682E-1,-1.6310467E0,-7.883169E-1,-8.260463E-1,3.0469117E-1,6.920602E-1,1.326799E0],"categories":[],"categories_nodes":[],"categories_segments":[],"categories_sizes":[],"default_left":[true,true,true,true,false,true,true,false,true,true,true,true,false,false,false,false,false,false,false,false,false],"id":2,"left_children":[1,3,5,7,-1,9,11,-1,13,15,17,19,-1,-1,-1,-1,-1,-1,-1,-1,-1],"loss_changes":[1.2122717E2,4.4849243E0,3.4290028E1,1.5245361E0,0E0,2.1209587E1,2.0327168E0,0E0,8.6593676E-1,7.3712234E0,5.2660704E0,4.8596382E-2,0E0,0E0,0E0,0E0,0E0,0E0,0E0,0E0,0E0],"parents":[2147483647,0,0,1,1,2,2,3,3,5,5,6,6,8,8,9,9,10,10,11,11],"right_children":[2,4,6,8,-1,10,12,-1,14,16,18,20,-1,-1,-1,-1,-1,-1,-1,-1,-1],"split_conditions":[5E-1,1.55E1,7.2650003E0,3.04E0,-2.6999281E-3,9.5E0,1.75E1,-3.7601016E-2,5E-1,1.505E0,1.115E0,1.325E1,-3.6760857E-3,-2.1358201E-2,-2.3679363E-3,-3.2620933E-2,-1.5766338E-2,-1.6520925E-2,6.0938234E-3,1.3841203E-2,2.653598E-2],"split_indices":[12,5,3,3,0,5,3,0,4,3,3,3,0,0,0,0,0,0,0,0,0],"split_type":[0,0,0,0,0,0,0,0,0,0,0,0,0,0,0,0,0,0,0,0,0],"sum_hessian":[3.596021E2,2.688858E2,9.071629E1,2.6713635E2,1.7494577E0,7.646676E1,1.4249534E1,2.623915E2,4.744833E0,5.4972443E1,2.1494316E1,1.299955E1,1.249984E0,2.9967365E0,1.7480963E0,1.7731445E1,3.7240997E1,3.7480035E0,1.7746311E1,9.999677E0,2.9998734E0],"tree_param":{"num_deleted":"0","num_feature":"19","num_nodes":"21","size_leaf_vector":"0"}},{"base_weights":[-1.4967792E0,-1.6779305E0,-3.811305E-1,-1.7507178E0,-1.2370001E0,-2.1783847E-1,-1.2778765E0,-1.4085859E0,-7.5097907E-1,-3.8994145E-1,2.1715543E-1,-4.4917625E-1,-1.4624186E0,-5.627388E-1,-1.1405162E0,2.108412E-1,-5.533429E-1,-3.1762475E-1,5.20557E-1],"categories":[],"categories_nodes":[],"categories_segments":[],"categories_sizes":[],"default_left":[true,true,true,false,true,true,false,true,true,true,true,false,false,false,false,false,false,false,false],"id":3,"left_children":[1,3,5,-1,7,9,-1,11,13,15,17,-1,-1,-1,-1,-1,-1,-1,-1],"loss_changes":[7.177002E1,6.673584E0,7.2277527E0,0E0,2.4925232E0,3.568978E0,0E0,7.933731E-1,2.0875835E-1,3.4616194E0,2.5190814E0,0E0,0E0,0E0,0E0,0E0,0E0,0E0,0E0],"parents":[2147483647,0,0,1,1,2,2,4,4,5,5,7,7,8,8,9,9,10,10],"right_children":[2,4,6,-1,8,10,-1,12,14,16,18,-1,-1,-1,-1,-1,-1,-1,-1],"split_conditions":[5.91E1,3.76E1,5E-1,-3.5014354E-2,5E-1,9.975E1,-2.555753E-2,3.815E1,5E-1,6.67E1,1.5E0,-8.9835245E-3,-2.924837E-2,-1.1254775E-2,-2.2810323E-2,4.2168237E-3,-1.1066858E-2,-6.352495E-3,1.041114E-2],"split_indices":[2,2,11,0,7,2,0,2,10,2,0,0,0,0,0,0,0,0,0],"split_type":[0,0,0,0,0,0,0,0,0,0,0,0,0,0,0,0,0,0,0],"sum_hessian":[3.5836557E2,3.0765475E2,5.0710835E1,2.6023953E2,4.7415222E1,4.4476345E1,6.2344904E0,3.2939056E1,1.4476164E1,3.1979273E1,1.249707E1,2.4946747E0,3.0444384E1,1.2232077E1,2.2440875E0,6.74484E0,2.5234432E1,4.498184E0,7.998886E0],"tree_param":{"num_deleted":"0","num_feature":"19","num_nodes":"19","size_leaf_vector":"0"}},{"base_weights":[-1.4647118E0,-1.5324433E0,-8.627207E-1,-1.5483719E0,2.7251774E-1,-2.562599E-1,-1.190349E0,-1.5738053E0,-5.993601E-1,-4.5468515E-1,2.283639E-1,-4.4256557E-2,-9.663452E-1,-8.9662276E-2,-7.668666E-1,5.9949726E-1,-2.4113534E-1],"categories":[],"categories_nodes":[],"categories_segments":[],"categories_sizes":[],"default_left":[true,true,true,true,false,true,false,false,true,true,true,false,false,false,false,false,false],"id":4,"left_children":[1,3,5,7,-1,9,-1,-1,11,13,15,-1,-1,-1,-1,-1,-1],"loss_changes":[1.2217407E1,9.577881E0,7.2228985E0,6.0342407E0,0E0,1.6433244E0,0E0,0E0,2.0703433E0,1.2047195E0,1.1738715E0,0E0,0E0,0E0,0E0,0E0,0E0],"parents":[2147483647,0,0,1,1,2,2,3,3,5,5,8,8,9,9,10,10],"right_children":[2,4,6,8,-1,10,-1,-1,12,14,16,-1,-1,-1,-1,-1,-1],"split_conditions":[5E-1,5E-1,6.95E1,5E-1,5.450355E-3,6.55E1,-2.380698E-2,-3.1476106E-2,6.7E1,5.9E1,6.75E1,-8.851311E-4,-1.9326903E-2,-1.7932454E-3,-1.5337332E-2,1.1989945E-2,-4.822707E-3],"split_indices":[8,18,1,16,0,1,0,0,1,1,1,0,0,0,0,0,0],"split_type":[0,0,0,0,0,0,0,0,0,0,0,0,0,0,0,0,0],"sum_hessian":[3.4677664E2,3.096219E2,3.7154747E1,3.071248E2,2.4971116E0,1.39695215E1,2.3185226E1,2.981469E2,8.9778595E0,9.977132E0,3.9923897E0,4.2421117E0,4.735748E0,5.4893937E0,4.487738E0,1.9978131E0,1.9945766E0],"tree_param":{"num_deleted":"0","num_feature":"19","num_nodes":"17","size_leaf_vector":"0"}},{"base_weights":[-1.4229177E0,-1.7726603E0,-3.6864752E-1,-7.52298E-1,1.3918294E-1,-9.018956E-2,-1.0117332E0,4.0606412E-1,-5.637124E-1,-2.896376E-1,5.157129E-1,-1.3684747E0,-5.3219706E-1,6.244665E-1,6.7509614E-2,-6.845492E-1,1.9391368E-1],"categories":[],"categories_nodes":[],"categories_segments":[],"categories_sizes":[],"default_left":[true,false,true,true,true,true,true,true,true,false,false,false,false,false,false,false,false],"id":5,"left_children":[1,-1,3,5,7,9,11,13,15,-1,-1,-1,-1,-1,-1,-1,-1],"loss_changes":[1.2763104E2,0E0,1.7454226E1,8.590664E0,7.7480607E0,2.1516027E0,5.127281E0,2.1166916E0,1.2511039E0,0E0,0E0,0E0,0E0,0E0,0E0,0E0,0E0],"parents":[2147483647,0,0,2,2,3,3,4,4,5,5,6,6,7,7,8,8],"right_children":[2,-1,4,6,8,10,12,14,16,-1,-1,-1,-1,-1,-1,-1,-1],"split_conditions":[5E-1,-3.5453204E-2,5.35E1,5.85E1,7.65E1,5E-1,2.655E1,5E-1,1.265E2,-5.792752E-3,1.0314258E-2,-2.7369494E-2,-1.0643941E-2,1.2489329E-2,1.3501922E-3,-1.3690984E-2,3.8782735E-3],"split_indices":[12,0,2,1,1,6,2,7,2,0,0,0,0,0,0,0,0],"split_type":[0,0,0,0,0,0,0,0,0,0,0,0,0,0,0,0,0],"sum_hessian":[3.473017E2,2.6002063E2,8.728109E1,4.930817E1,3.7972916E1,1.4450442E1,3.4857727E1,2.7981945E1,9.990972E0,1.14607935E1,2.9896483E0,1.839357E1,1.6464157E1,1.623922E1,1.1742724E1,8.7414465E0,1.2495253E0],"tree_param":{"num_deleted":"0","num_feature":"19","num_nodes":"17","size_leaf_vector":"0"}},{"base_weights":[-1.4199871E0,-1.5769563E0,3.323134E-1,-1.7264464E0,-1.203149E0,-2.9205543E-1,7.412325E-1,-1.2405939E0,-1.23456836E-1,1.4802715E-1,-4.5721856E-1,9.838241E-1,1.9872782E-1,-1.2835323E0,-3.1591803E-1,6.989461E-2,-2.8695476E-1,3.6170164E-1,-1.1760394E-1,-8.9379597E-1,-1.5750065E-1,1.2489955E0,4.0832648E-1,6.7048883E-1,-4.9496546E-1],"categories":[],"categories_nodes":[],"categories_segments":[],"categories_sizes":[],"default_left":[true,true,true,false,true,true,true,true,true,true,true,true,true,false,false,false,false,false,false,false,false,false,false,false,false],"id":6,"left_children":[1,3,5,-1,7,9,11,13,15,17,19,21,23,-1,-1,-1,-1,-1,-1,-1,-1,-1,-1,-1,-1],"loss_changes":[9.94693E1,1.529895E1,8.171923E0,0E0,3.776291E0,1.0638291E0,2.2067204E0,3.1874847E0,1.8773875E-1,3.331812E-1,1.0964739E0,1.180193E0,3.0338292E0,0E0,0E0,0E0,0E0,0E0,0E0,0E0,0E0,0E0,0E0,0E0,0E0],"parents":[2147483647,0,0,1,1,2,2,4,4,5,5,6,6,7,7,8,8,9,9,10,10,11,11,12,12],"right_children":[2,4,6,-1,8,10,12,14,16,18,20,22,24,-1,-1,-1,-1,-1,-1,-1,-1,-1,-1,-1,-1],"split_conditions":[4.455E0,1.52E0,6.285E0,-3.4528926E-2,5E-1,4.67E0,5E-1,5E-1,2.6550002E0,5E-1,5.0150003E0,5E-1,1.116E1,-2.5670644E-2,-6.3183606E-3,1.3978923E-3,-5.739095E-3,7.2340327E-3,-2.352079E-3,-1.787592E-2,-3.150013E-3,2.497991E-2,8.166529E-3,1.3409777E-2,-9.899309E-3],"split_indices":[3,3,3,0,17,3,8,16,3,7,3,4,3,0,0,0,0,0,0,0,0,0,0,0,0],"split_type":[0,0,0,0,0,0,0,0,0,0,0,0,0,0,0,0,0,0,0,0,0,0,0,0,0],"sum_hessian":[3.5727338E2,3.2803818E2,2.923521E1,2.3045038E2,9.758779E1,1.1739354E1,1.7495857E1,9.410072E1,3.4870641E0,3.2459753E0,8.493379E0,1.1246526E1,6.2493305E0,8.936866E1,4.732066E0,1.9911277E0,1.4959363E0,1.4982636E0,1.7477117E0,2.2470613E0,6.2463174E0,6.497327E0,4.749199E0,3.7495468E0,2.4997838E0],"tree_param":{"num_deleted":"0","num_feature":"19","num_nodes":"25","size_leaf_vector":"0"}},{"base_weights":[-1.3733488E0,-1.7168008E0,-3.7189844E-1,-1.7275032E0,-4.5853516E-1,-6.667544E-1,4.2270112E-1,-5.592427E-1,-9.776316E-2,-8.7610835E-1,-5.107733E-1,5.74504E-1,-2.866422E-1,-9.608294E-1,-1.4089043E-1,-1.3082135E-1,-6.353695E-1,6.598175E-1,-2.8183824E-1,-8.72376E-1,5.213802E-1],"categories":[],"categories_nodes":[],"categories_segments":[],"categories_sizes":[],"default_left":[true,true,true,false,true,true,true,false,false,true,true,true,true,false,false,false,false,false,false,false,false],"id":7,"left_children":[1,3,5,-1,7,9,11,-1,-1,13,15,17,19,-1,-1,-1,-1,-1,-1,-1,-1],"loss_changes":[1.1850336E2,2.2890015E0,2.1652287E1,0E0,7.1303606E-2,1.5058784E0,2.986568E0,0E0,0E0,1.4393482E0,1.854249E0,1.8464627E0,3.2784896E0,0E0,0E0,0E0,0E0,0E0,0E0,0E0,0E0],"parents":[2147483647,0,0,1,1,2,2,4,4,5,5,6,6,9,9,10,10,11,11,12,12],"right_children":[2,4,6,-1,8,10,12,-1,-1,14,16,18,20,-1,-1,-1,-1,-1,-1,-1,-1],"split_conditions":[5E-1,1.35E1,9.5E0,-3.4550063E-2,5E-1,4.5E0,5E-1,-1.1184854E-2,-1.955263E-3,5E-1,5.5E0,5E-1,1.35E1,-1.9216588E-2,-2.8178087E-3,-2.616427E-3,-1.2707389E-2,1.319635E-2,-5.6367647E-3,-1.744752E-2,1.04276035E-2],"split_indices":[12,5,5,0,11,5,14,0,0,14,5,13,5,0,0,0,0,0,0,0,0],"split_type":[0,0,0,0,0,0,0,0,0,0,0,0,0,0,0,0,0,0,0,0,0],"sum_hessian":[3.4582108E2,2.5670984E2,8.911125E1,2.539901E2,2.7197418E0,6.516973E1,2.3941515E1,1.4811072E0,1.2386347E0,2.4867744E1,4.030199E1,1.9955975E1,3.9855409E0,2.1885525E1,2.9822202E0,1.0711763E1,2.9590225E1,1.8461027E1,1.4949474E0,2.2413359E0,1.744205E0],"tree_param":{"num_deleted":"0","num_feature":"19","num_nodes":"21","size_leaf_vector":"0"}},{"base_weights":[-1.3581978E0,-1.5396224E0,3.7002435E-1,-1.6642524E0,-1.1876274E0,-2.3959393E-2,8.3579713E-1,-1.237412E0,-1.6285294E-1,2.8795654E-1,-1.5152146E-1,1.0186461E0,3.723402E-1,-2.2467755E-1,-1.2518337E0,-3.498075E-1,2.313825E-1,-5.32533E-1,8.6178523E-1,-4.15797E-1,1.5751353E-1,2.9253644E-1,1.141496E0,6.6201764E-1,-3.2074034E-1],"categories":[],"categories_nodes":[],"categories_segments":[],"categories_sizes":[],"default_left":[true,true,true,false,true,true,true,true,true,true,true,true,true,false,false,false,false,false,false,false,false,false,false,false,false],"id":8,"left_children":[1,3,5,-1,7,9,11,13,15,17,19,21,23,-1,-1,-1,-1,-1,-1,-1,-1,-1,-1,-1,-1],"loss_changes":[1.0816492E2,1.0635803E1,6.21876E0,0E0,4.100815E0,8.5042024E-1,7.4426365E-1,7.769089E-1,5.434276E-1,3.6279802E0,1.3220732E0,4.1324615E-1,1.6733474E0,0E0,0E0,0E0,0E0,0E0,0E0,0E0,0E0,0E0,0E0,0E0,0E0],"parents":[2147483647,0,0,1,1,2,2,4,4,5,5,6,6,7,7,8,8,9,9,10,10,11,11,12,12],"right_children":[2,4,6,-1,8,10,12,14,16,18,20,22,24,-1,-1,-1,-1,-1,-1,-1,-1,-1,-1,-1,-1],"split_conditions":[4.435E0,1.625E0,7.27E0,-3.3285048E-2,5E-1,4.66E0,5E-1,1.645E0,2.92E0,5E-1,5.6899996E0,8.115E0,1.1950001E1,-4.493551E-3,-2.5036672E-2,-6.9961497E-3,4.62765E-3,-1.065066E-2,1.7235704E-2,-8.315939E-3,3.1502706E-3,5.8507286E-3,2.2829918E-2,1.3240352E-2,-6.4148065E-3],"split_indices":[3,3,3,0,16,3,6,3,3,6,3,3,3,0,0,0,0,0,0,0,0,0,0,0,0],"split_type":[0,0,0,0,0,0,0,0,0,0,0,0,0,0,0,0,0,0,0,0,0,0,0,0,0],"sum_hessian":[3.4075195E2,3.0852722E2,3.2224743E1,2.2372232E2,8.480489E1,1.8228565E1,1.3996178E1,8.057904E1,4.225848E0,4.7435412E0,1.3485024E1,8.747932E0,5.248245E0,1.4805349E0,7.909851E1,2.981161E0,1.2446871E0,1.9966199E0,2.746921E0,6.989583E0,6.4954414E0,1.9998136E0,6.7481194E0,3.7486856E0,1.4995592E0],"tree_param":{"num_deleted":"0","num_feature":"19","num_nodes":"25","size_leaf_vector":"0"}},{"base_weights":[-1.3889939E0,-1.4566994E0,-6.609392E-1,-1.4769332E0,2.2458446E-1,-7.779471E-2,-1.0433341E0,-1.495508E0,-7.3369217E-1,7.546972E-1,-4.1075218E-1,-3.618324E-1,4.6311237E-2,-1.1183579E0,-3.3310407E-1,-1.5578665E0,-1.2292004E0,5.097501E-1,-1.0712808E0,2.1303783E-1,-8.435252E-1,-1.372532E-1,3.9564642E-1],"categories":[],"categories_nodes":[],"categories_segments":[],"categories_sizes":[],"default_left":[true,true,true,true,true,true,true,true,true,false,false,true,true,false,false,false,false,false,false,false,false,false,false],"id":9,"left_children":[1,3,5,7,9,11,13,15,17,-1,-1,19,21,-1,-1,-1,-1,-1,-1,-1,-1,-1,-1],"loss_changes":[1.53220215E1,1.1041565E1,6.943774E0,2.584961E0,2.1448784E0,5.246225E-1,4.5443726E-1,2.0687256E0,5.1917896E0,0E0,0E0,1.5097804E0,7.99068E-1,0E0,0E0,0E0,0E0,0E0,0E0,0E0,0E0,0E0,0E0],"parents":[2147483647,0,0,1,1,2,2,3,3,4,4,5,5,6,6,7,7,8,8,11,11,12,12],"right_children":[2,4,6,8,10,12,14,16,18,-1,-1,20,22,-1,-1,-1,-1,-1,-1,-1,-1,-1,-1],"split_conditions":[5E-1,5E-1,6.9E1,5E-1,5.45E1,5.2E1,5E-1,5E-1,5E1,1.5093944E-2,-8.215044E-3,4.4E1,5E-1,-2.2367157E-2,-6.6620815E-3,-3.1157328E-2,-2.4584007E-2,1.0195002E-2,-2.1425616E-2,4.2607565E-3,-1.6870502E-2,-2.7450637E-3,7.912928E-3],"split_indices":[8,18,1,16,1,1,11,4,1,0,0,1,9,0,0,0,0,0,0,0,0,0,0],"split_type":[0,0,0,0,0,0,0,0,0,0,0,0,0,0,0,0,0,0,0,0,0,0,0],"sum_hessian":[3.3863138E2,3.0844623E2,3.0185167E1,3.0495844E2,3.4877906E0,1.2669539E1,1.7515629E1,2.960417E2,8.916751E0,1.747721E0,1.7400696E0,2.978793E0,9.690746E0,1.5062561E1,2.4530673E0,2.3397855E2,6.2063133E1,1.7406061E0,7.176145E0,1.7394564E0,1.2393365E0,6.9496045E0,2.7411416E0],"tree_param":{"num_deleted":"0","num_feature":"19","num_nodes":"23","size_leaf_vector":"0"}},{"base_weights":[-1.296306E0,-1.3127735E0,1.3854657E-1,-1.3878738E0,-1.0765792E0,6.748832E-1,-3.4637082E-1,-1.4059404E0,-6.810482E-1,-1.0965652E0,-3.9784208E-2,2.1450734E-1,-8.621911E-1,-2.892506E-1,-1.1270763E0],"categories":[],"categories_nodes":[],"categories_segments":[],"categories_sizes":[],"default_left":[true,true,true,true,true,false,false,false,true,true,false,false,false,false,false],"id":10,"left_children":[1,3,5,7,9,-1,-1,-1,11,13,-1,-1,-1,-1,-1],"loss_changes":[8.350464E0,3.7565308E0,1.7123498E0,1.7735901E0,1.763443E0,0E0,0E0,0E0,1.7656646E0,1.6425247E0,0E0,0E0,0E0,0E0,0E0],"parents":[2147483647,0,0,1,1,2,2,3,3,4,4,8,8,9,9],"right_children":[2,4,6,8,10,-1,-1,-1,12,14,-1,-1,-1,-1,-1],"split_conditions":[5E-1,5E-1,5.95E1,5E-1,9.15E1,1.3497664E-2,-6.927416E-3,-2.8118808E-2,3.15E1,4.05E1,-7.956841E-4,4.2901468E-3,-1.7243821E-2,-5.785012E-3,-2.2541525E-2],"split_indices":[18,7,1,16,1,0,0,0,1,1,0,0,0,0,0],"split_type":[0,0,0,0,0,0,0,0,0,0,0,0,0,0,0],"sum_hessian":[3.4036044E2,3.366247E2,3.7357564E0,2.49864E2,8.67607E1,1.4948138E0,2.2409425E0,2.4218996E2,7.674039E0,8.503503E1,1.7256716E0,1.2445928E0,6.429446E0,3.669198E0,8.136582E1],"tree_param":{"num_deleted":"0","num_feature":"19","num_nodes":"15","size_leaf_vector":"0"}},{"base_weights":[-1.278198E0,-1.4591358E0,4.6191615E-1,-1.6042426E0,-1.1176485E0,1.1351294E-1,9.4001585E-1,-1.2518212E0,-8.3555746E-1,3.0368724E-1,-8.9384955E-1,1.0492791E0,1.4474464E-2,-6.698063E-1,-1.1684642E0,3.5143193E-2,1.0430267E0],"categories":[],"categories_nodes":[],"categories_segments":[],"categories_sizes":[],"default_left":[true,true,true,false,true,true,true,false,true,true,false,false,false,false,false,false,false],"id":11,"left_children":[1,3,5,-1,7,9,11,-1,13,15,-1,-1,-1,-1,-1,-1,-1],"loss_changes":[1.0980737E2,1.2838257E1,5.4509573E0,0E0,2.155098E0,4.466956E0,1.3923645E0,0E0,8.2494164E-1,3.7066412E0,0E0,0E0,0E0,0E0,0E0,0E0,0E0],"parents":[2147483647,0,0,1,1,2,2,4,4,5,5,6,6,8,8,9,9],"right_children":[2,4,6,-1,8,10,12,-1,14,16,-1,-1,-1,-1,-1,-1,-1],"split_conditions":[4.435E0,1.495E0,7.27E0,-3.208485E-2,2.475E0,6.87E0,1.6985E1,-2.5036423E-2,5E-1,6.0299997E0,-1.787699E-2,2.0985581E-2,2.8948925E-4,-1.3396125E-2,-2.3369282E-2,7.0286385E-4,2.0860534E-2],"split_indices":[3,3,3,0,3,3,3,0,11,3,0,0,0,0,0,0,0],"split_type":[0,0,0,0,0,0,0,0,0,0,0,0,0,0,0,0,0],"sum_hessian":[3.44047E2,3.1186166E2,3.2185318E1,2.1496907E2,9.689259E1,1.9691654E1,1.2493662E1,6.216718E1,3.4725414E1,1.7445934E1,2.2457213E0,1.0995114E1,1.4985479E0,2.619911E1,8.526303E0,1.3950214E1,3.4957194E0],"tree_param":{"num_deleted":"0","num_feature":"19","num_nodes":"17","size_leaf_vector":"0"}},{"base_weights":[-1.2885691E0,-1.6133016E0,-3.209821E-1,-4.9647215E-1,1.6714133E-1,-7.565216E-1,-1.8894811E-1,8.712877E-2,2.1937831E-1,-3.3903033E-1,-6.2486894E-2,-1.3034494E-1,2.8530902E-1,4.0236112E-1,-2.5761962E-2],"categories":[],"categories_nodes":[],"categories_segments":[],"categories_sizes":[],"default_left":[true,false,true,true,true,false,true,true,true,false,false,false,false,false,false],"id":12,"left_children":[1,-1,3,5,7,-1,9,11,13,-1,-1,-1,-1,-1,-1],"loss_changes":[1.0986072E2,0E0,7.8640985E0,5.130604E0,7.588369E-2,0E0,5.873816E-1,5.888758E-1,6.5010667E-1,0E0,0E0,0E0,0E0,0E0,0E0],"parents":[2147483647,0,0,2,2,3,3,4,4,6,6,7,7,8,8],"right_children":[2,-1,4,6,8,-1,10,12,14,-1,-1,-1,-1,-1,-1],"split_conditions":[5E-1,-3.2266032E-2,5E-1,5E-1,1.5E0,-1.5130431E-2,1.5E0,5E-1,5E-1,-6.780606E-3,-1.2497378E-3,-2.6068988E-3,5.7061804E-3,8.047222E-3,-5.1523926E-4],"split_indices":[12,0,4,9,0,0,0,9,9,0,0,0,0,0,0],"split_type":[0,0,0,0,0,0,0,0,0,0,0,0,0,0,0],"sum_hessian":[3.506167E2,2.6176465E2,8.885203E1,6.533658E1,2.3515453E1,3.42142E1,3.1122377E1,1.0869033E1,1.264642E1,1.307903E1,1.8043348E1,5.427064E0,5.4419694E0,6.6904016E0,5.956018E0],"tree_param":{"num_deleted":"0","num_feature":"19","num_nodes":"15","size_leaf_vector":"0"}},{"base_weights":[-1.2512473E0,-1.4505218E0,3.126118E-1,-1.5654927E0,-1.1659237E0,-1.0953986E-1,8.103262E-1,-1.2308341E0,-7.566883E-1,3.3965757E-1,-8.3148026E-1,1.0230675E0,-1.9268903E-1,-1.658941E-1,-1.2478013E0,3.092694E-1,-8.713418E-1,-1.8658794E-1,1.0419581E0,-1.0237622E0,-1.949129E-1,-6.375523E-1,3.484014E-1],"categories":[],"categories_nodes":[],"categories_segments":[],"categories_sizes":[],"default_left":[true,true,true,false,true,true,true,true,true,true,true,false,true,false,false,false,false,false,false,false,false,false,false],"id":13,"left_children":[1,3,5,-1,7,9,11,13,15,17,19,-1,21,-1,-1,-1,-1,-1,-1,-1,-1,-1,-1],"loss_changes":[1.0729047E2,7.19928E0,8.516338E0,0E0,1.0803528E0,7.8530593E0,4.241001E0,1.100708E0,2.440508E0,5.9046316E0,8.2947826E-1,0E0,1.4158199E0,0E0,0E0,0E0,0E0,0E0,0E0,0E0,0E0,0E0,0E0],"parents":[2147483647,0,0,1,1,2,2,4,4,5,5,6,6,7,7,8,8,9,9,10,10,12,12],"right_children":[2,4,6,-1,8,10,12,14,16,18,20,-1,22,-1,-1,-1,-1,-1,-1,-1,-1,-1,-1],"split_conditions":[4.2349997E0,1.495E0,7.2650003E0,-3.1309854E-2,6.375E1,7.58E1,7.65E1,1.354E1,6.67E1,5.91E1,1.029E2,2.0461349E-2,9.51E0,-3.317882E-3,-2.4956025E-2,6.1853877E-3,-1.7426835E-2,-3.7317588E-3,2.0839162E-2,-2.0475244E-2,-3.8982579E-3,-1.2751047E-2,6.968028E-3],"split_indices":[3,3,3,0,2,2,1,2,2,2,2,0,3,0,0,0,0,0,0,0,0,0,0],"split_type":[0,0,0,0,0,0,0,0,0,0,0,0,0,0,0,0,0,0,0,0,0,0,0],"sum_hessian":[3.405973E2,3.021984E2,3.839888E1,2.1043604E2,9.176236E1,2.1409573E1,1.698931E1,7.6600945E1,1.5161417E1,1.3687424E1,7.722149E0,1.3991665E1,2.9976442E0,1.4548336E0,7.514611E1,1.2251166E0,1.39363E1,8.454102E0,5.233321E0,5.2299924E0,2.4921565E0,1.4983499E0,1.4992943E0],"tree_param":{"num_deleted":"0","num_feature":"19","num_nodes":"23","size_leaf_vector":"0"}},{"base_weights":[-1.1841753E0,-1.5518332E0,-1.524517E-1,-1.5665419E0,-2.8511873E-1,-1.2581353E0,1.14847586E-1,-6.5775335E-1,3.4391642E-1,-1.0018124E-1,8.7555975E-1,4.807526E-2,-4.6041662E-1,1.140591E0,4.110051E-1],"categories":[],"categories_nodes":[],"categories_segments":[],"categories_sizes":[],"default_left":[true,true,true,false,true,false,true,false,false,true,true,false,false,false,false],"id":14,"left_children":[1,3,5,-1,7,-1,9,-1,-1,11,13,-1,-1,-1,-1],"loss_changes":[1.2562311E2,3.8890991E0,2.6496723E1,0E0,1.4275141E0,0E0,1.2069708E1,0E0,0E0,3.1439106E0,1.2960072E0,0E0,0E0,0E0,0E0],"parents":[2147483647,0,0,1,1,2,2,4,4,6,6,9,9,10,10],"right_children":[2,4,6,-1,8,-1,10,-1,-1,12,14,-1,-1,-1,-1],"split_conditions":[5E-1,3.395E0,1.195E0,-3.133084E-2,7.5104996E1,-2.5162706E-2,7.2650003E0,-1.3155066E-2,6.878328E-3,7.455E1,1.0865E1,9.6150517E-4,-9.208332E-3,2.281182E-2,8.220102E-3],"split_indices":[12,3,3,0,2,0,3,0,0,2,3,0,0,0,0],"split_type":[0,0,0,0,0,0,0,0,0,0,0,0,0,0,0],"sum_hessian":[3.30614E2,2.4319464E2,8.741937E1,2.4005217E2,3.1424687E0,1.5936747E1,7.148263E1,1.9304227E0,1.2120461E0,5.674508E1,1.4737546E1,4.1121258E1,1.5623821E1,7.9940434E0,6.7435026E0],"tree_param":{"num_deleted":"0","num_feature":"19","num_nodes":"15","size_leaf_vector":"0"}},{"base_weights":[-1.2437803E0,-1.5490026E0,-3.77942E-1,-2.5101146E-1,-8.3299625E-1,-3.0011618E-1,6.909545E-1,-1.0037568E0,-3.8961372E-1,-4.9532774E-1,-1.11533575E-1,-1.1400061E0,-4.489982E-1,-6.1052763E-1,1.413759E-1],"categories":[],"categories_nodes":[],"categories_segments":[],"categories_sizes":[],"default_left":[true,false,true,true,true,true,false,true,true,false,false,false,false,false,false],"id":15,"left_children":[1,-1,3,5,7,9,-1,11,13,-1,-1,-1,-1,-1,-1],"loss_changes":[8.689264E1,0E0,4.8008833E0,3.6128335E0,8.2656574E-1,2.453257E0,0E0,1.7882442E-1,1.0258294E0,0E0,0E0,0E0,0E0,0E0,0E0],"parents":[2147483647,0,0,2,2,3,3,4,4,5,5,7,7,8,8],"right_children":[2,-1,4,6,8,10,-1,12,14,-1,-1,-1,-1,-1,-1],"split_conditions":[5E-1,-3.0980052E-2,8.05E1,5E-1,5E-1,1.5E0,1.381909E-2,5E-1,8.65E1,-9.906555E-3,-2.2306715E-3,-2.2800121E-2,-8.979964E-3,-1.2210553E-2,2.827518E-3],"split_indices":[12,0,1,18,7,0,0,4,1,0,0,0,0,0,0],"split_type":[0,0,0,0,0,0,0,0,0,0,0,0,0,0,0],"sum_hessian":[3.3062125E2,2.4357387E2,8.704737E1,6.9882195E1,1.7165176E1,6.739118E1,2.4910157E0,1.1023779E1,6.1413975E0,3.1914732E1,3.5476448E1,7.5797467E0,3.444032E0,4.178344E0,1.9630537E0],"tree_param":{"num_deleted":"0","num_feature":"19","num_nodes":"15","size_leaf_vector":"0"}},{"base_weights":[-1.2089329E0,-1.2220427E0,1.15355074E-1,-1.2859476E0,-9.8129785E-1,2.7700627E-1,-1.5438604E-1,-1.3566629E0,-1.050777E0,-1.0382859E0,-3.1179586E-2,-7.624729E-1,-1.1343915E0,5.8236057E-1,-7.2191656E-1],"categories":[],"categories_nodes":[],"categories_segments":[],"categories_sizes":[],"default_left":[true,true,true,true,true,false,false,false,true,false,true,false,false,false,false],"id":16,"left_children":[1,3,5,7,9,-1,-1,-1,11,-1,13,-1,-1,-1,-1],"loss_changes":[6.1454163E0,3.31604E0,2.700058E-1,2.2308044E0,4.13974E0,0E0,0E0,0E0,3.2710266E-1,0E0,3.1409812E0,0E0,0E0,0E0,0E0],"parents":[2147483647,0,0,1,1,2,2,3,3,4,4,8,8,10,10],"right_children":[2,4,6,8,10,-1,-1,-1,12,-1,14,-1,-1,-1,-1],"split_conditions":[5E-1,5E-1,5E-1,5E-1,5E-1,5.540125E-3,-3.0877208E-3,-2.7133256E-2,5E-1,-2.0765716E-2,5E-1,-1.5249458E-2,-2.268783E-2,1.1647211E-2,-1.4438331E-2],"split_indices":[18,4,4,7,16,0,0,0,15,0,7,0,0,0,0],"split_type":[0,0,0,0,0,0,0,0,0,0,0,0,0,0,0],"sum_hessian":[3.4029645E2,3.370754E2,3.2210581E0,2.6122247E2,7.585291E1,1.9888024E0,1.2322558E0,1.9533301E2,6.588947E1,7.142939E1,4.4235215E0,1.8225637E1,4.7663837E1,2.4673088E0,1.9562125E0],"tree_param":{"num_deleted":"0","num_feature":"19","num_nodes":"15","size_leaf_vector":"0"}},{"base_weights":[-1.1899308E0,-1.2092175E0,1.7471875E-1,-1.2323534E0,-3.5481104E-1,7.880442E-1,-7.099913E-1,-1.3009658E0,-9.753489E-1,-6.780344E-1,3.8394275E-1,-5.3053755E-1,-1.3117605E0,-3.8110578E-1,-1.0708661E0,-1.1031481E-1,-1.1135803E0],"categories":[],"categories_nodes":[],"categories_segments":[],"categories_sizes":[],"default_left":[true,true,true,true,true,false,false,true,true,true,false,false,false,false,false,false,false],"id":17,"left_children":[1,3,5,7,9,-1,-1,11,13,15,-1,-1,-1,-1,-1,-1,-1],"loss_changes":[9.098206E0,5.851166E0,4.0733995E0,3.7376099E0,2.9657845E0,0E0,0E0,1.0185852E0,3.554039E0,1.8049681E0,0E0,0E0,0E0,0E0,0E0,0E0,0E0],"parents":[2147483647,0,0,1,1,2,2,3,3,4,4,7,7,8,8,9,9],"right_children":[2,4,6,8,10,-1,-1,12,14,16,-1,-1,-1,-1,-1,-1,-1],"split_conditions":[5E-1,5E-1,6.2E1,5E-1,5E-1,1.5760884E-2,-1.4199825E-2,1.95E1,4.75E1,6.7E1,7.6788547E-3,-1.0610751E-2,-2.623521E-2,-7.6221153E-3,-2.1417322E-2,-2.2062962E-3,-2.2271607E-2],"split_indices":[18,16,1,4,4,0,0,1,1,1,0,0,0,0,0,0,0],"split_type":[0,0,0,0,0,0,0,0,0,0,0,0,0,0,0,0,0],"sum_hessian":[3.3214035E2,3.2768005E2,4.4602885E0,3.1839496E2,9.285107E0,2.7309504E0,1.7293379E0,2.464952E2,7.189976E1,6.544855E0,2.7402515E0,4.4454117E0,2.4204977E2,1.09931E1,6.0906654E1,3.6574323E0,2.8874226E0],"tree_param":{"num_deleted":"0","num_feature":"19","num_nodes":"17","size_leaf_vector":"0"}},{"base_weights":[-1.1727594E0,-1.342962E0,3.549224E-1,-1.4620496E0,-1.0503789E0,3.84936E-2,9.721581E-1,-8.5151754E-2,-1.0694989E0,3.1966174E-1,-2.6235878E-1,1.2926543E0,3.4209427E-1,-9.371157E-1,-1.2697965E0,-2.3702051E-1,6.6096556E-1,6.0345685E-1,-5.084776E-1,6.7307496E-1,-1.258334E-1],"categories":[],"categories_nodes":[],"categories_segments":[],"categories_sizes":[],"default_left":[true,true,true,false,true,true,true,false,true,true,true,false,true,false,false,false,false,false,false,false,false],"id":18,"left_children":[1,3,5,-1,7,9,11,-1,13,15,17,-1,19,-1,-1,-1,-1,-1,-1,-1,-1],"loss_changes":[8.79205E1,8.221802E0,6.742031E0,0E0,1.5744095E0,2.2043703E0,1.7062817E0,0E0,6.222534E-1,2.7767496E0,3.1653728E0,0E0,1.0557237E0,0E0,0E0,0E0,0E0,0E0,0E0,0E0,0E0],"parents":[2147483647,0,0,1,1,2,2,4,4,5,5,6,6,8,8,9,9,10,10,12,12],"right_children":[2,4,6,-1,8,10,12,-1,14,16,18,-1,20,-1,-1,-1,-1,-1,-1,-1,-1],"split_conditions":[4.225E0,1.505E0,8.905E0,-2.9240992E-2,2.6E1,5.465E0,5E-1,-1.7030351E-3,5E-1,5E-1,4.45E1,2.5853084E-2,6.35E1,-1.8742314E-2,-2.539593E-2,-4.74041E-3,1.3219311E-2,1.2069137E-2,-1.0169553E-2,1.3461499E-2,-2.516668E-3],"split_indices":[3,3,3,0,1,3,9,0,11,9,1,0,1,0,0,0,0,0,0,0,0],"split_type":[0,0,0,0,0,0,0,0,0,0,0,0,0,0,0,0,0,0,0,0,0],"sum_hessian":[3.338859E2,3.0057907E2,3.330684E1,2.0936673E2,9.121233E1,2.3072275E1,1.0234566E1,1.9306046E0,8.928173E1,1.187782E1,1.1194455E1,5.738242E0,4.496323E0,5.888238E1,3.0399347E1,4.688681E0,7.189139E0,1.9957645E0,9.19869E0,2.2483594E0,2.247964E0],"tree_param":{"num_deleted":"0","num_feature":"19","num_nodes":"21","size_leaf_vector":"0"}},{"base_weights":[-1.1780316E0,-1.1958088E0,-1.7687203E-1,-1.2176114E0,-4.8802766E-1,1.4491262E-1,-7.642295E-1,-1.1659681E0,-1.3950212E0,3.9964345E-1,-6.664456E-1,-1.5933885E-1,4.491499E-1,6.742679E-2,-1.4240639E0,-9.176983E-1,-2.804951E-1],"categories":[],"categories_nodes":[],"categories_segments":[],"categories_sizes":[],"default_left":[true,true,true,true,true,true,false,false,true,false,true,false,false,false,false,false,false],"id":19,"left_children":[1,3,5,7,9,11,-1,-1,13,-1,15,-1,-1,-1,-1,-1,-1],"loss_changes":[5.546173E0,4.099823E0,1.5851836E0,4.2578125E-1,2.3267777E0,6.7306983E-1,0E0,0E0,2.814888E0,0E0,6.509571E-1,0E0,0E0,0E0,0E0,0E0,0E0],"parents":[2147483647,0,0,1,1,2,2,3,3,4,4,5,5,8,8,10,10],"right_children":[2,4,6,8,10,12,-1,-1,14,-1,16,-1,-1,-1,-1,-1,-1],"split_conditions":[5E-1,5E-1,5E-1,5E-1,5E1,7.25E1,-1.52845895E-2,-2.331936E-2,2E1,7.992869E-3,5E-1,-3.1867768E-3,8.982998E-3,1.3485359E-3,-2.8481279E-2,-1.8353965E-2,-5.609902E-3],"split_indices":[17,16,11,11,1,1,0,0,1,0,9,0,0,0,0,0,0],"split_type":[0,0,0,0,0,0,0,0,0,0,0,0,0,0,0,0,0],"sum_hessian":[3.279465E2,3.2193832E2,6.008172E0,3.112694E2,1.0668898E1,4.6116133E0,1.3965586E0,2.4988641E2,6.1383E1,1.4742527E0,9.194645E0,2.6629455E0,1.9486678E0,1.1566635E0,6.0226337E1,4.317392E0,4.877253E0],"tree_param":{"num_deleted":"0","num_feature":"19","num_nodes":"17","size_leaf_vector":"0"}},{"base_weights":[-1.1452546E0,-1.3518133E0,-3.361956E-1,-1.4183085E0,-1.9656304E-1,-1.7074102E-1,-1.1123296E0,-1.4501029E0,-9.1648906E-1,-3.7077516E-1,2.2508764E-1,-5.6027216E-1,3.826486E-2,-1.1483471E0,-5.096198E-1,-6.081048E-1,4.093662E-2,4.4368312E-1,-3.6001146E-2,-8.733654E-1,1.0507294E-1,-4.007102E-1,1.3825007E-1],"categories":[],"categories_nodes":[],"categories_segments":[],"categories_sizes":[],"default_left":[true,true,true,true,true,true,false,false,true,true,true,true,true,false,false,false,false,false,false,false,false,false,false],"id":20,"left_children":[1,3,5,7,9,11,-1,-1,13,15,17,19,21,-1,-1,-1,-1,-1,-1,-1,-1,-1,-1],"loss_changes":[5.3517883E1,1.9390411E1,8.441851E0,1.8929138E0,1.2840245E0,4.736923E0,0E0,0E0,8.7586594E-1,1.1835034E0,3.4047088E-1,4.3612666E0,1.7954091E0,0E0,0E0,0E0,0E0,0E0,0E0,0E0,0E0,0E0,0E0],"parents":[2147483647,0,0,1,1,2,2,3,3,4,4,5,5,8,8,9,9,10,10,11,11,12,12],"right_children":[2,4,6,8,10,12,-1,-1,14,16,18,20,22,-1,-1,-1,-1,-1,-1,-1,-1,-1,-1],"split_conditions":[4.75E1,1.15E1,5E-1,9.5E0,1.35E1,6.255E1,-2.2246592E-2,-2.9002057E-2,2.15E1,2.2E1,2.245E1,8.5E0,3.5E0,-2.2966942E-2,-1.0192395E-2,-1.2162096E-2,8.1873237E-4,8.873662E-3,-7.200229E-4,-1.7467307E-2,2.1014586E-3,-8.014204E-3,2.7650013E-3],"split_indices":[2,5,11,5,5,2,0,0,2,2,2,5,5,0,0,0,0,0,0,0,0,0,0],"split_type":[0,0,0,0,0,0,0,0,0,0,0,0,0,0,0,0,0,0,0,0,0,0,0],"sum_hessian":[3.228191E2,2.563618E2,6.6457306E1,2.4208598E2,1.4275822E1,5.628795E1,1.016936E1,2.2499606E2,1.708991E1,1.0230078E1,4.0457435E0,1.8775135E1,3.7512814E1,9.144971E0,7.94494E0,6.0354457E0,4.1946325E0,1.631087E0,2.4146564E0,1.2448319E1,6.3268156E0,6.1222305E0,3.1390581E1],"tree_param":{"num_deleted":"0","num_feature":"19","num_nodes":"23","size_leaf_vector":"0"}},{"base_weights":[-1.1344209E0,-1.2986645E0,3.3341292E-1,-1.4502211E0,-9.3938005E-1,-1.1740501E-1,9.018521E-1,-1.0415763E0,-1.50317E-1,3.868921E-1,-8.982729E-1,2.2784933E-1,9.3740314E-1,3.7509103E-3,-1.0664394E0,-4.218045E-1,3.483875E-1,-1.5978135E-1,7.357742E-1,-1.1835474E0,-1.3222209E-1],"categories":[],"categories_nodes":[],"categories_segments":[],"categories_sizes":[],"default_left":[true,true,true,false,true,true,true,true,true,true,true,false,false,false,false,false,false,false,false,false,false],"id":21,"left_children":[1,3,5,-1,7,9,11,13,15,17,19,-1,-1,-1,-1,-1,-1,-1,-1,-1,-1],"loss_changes":[7.929242E1,1.3948364E1,8.877233E0,0E0,7.134735E0,8.5155945E0,4.432583E-2,2.1022873E0,1.8765637E0,2.72887E0,1.6048074E0,0E0,0E0,0E0,0E0,0E0,0E0,0E0,0E0,0E0,0E0],"parents":[2147483647,0,0,1,1,2,2,4,4,5,5,6,6,7,7,8,8,9,9,10,10],"right_children":[2,4,6,-1,8,10,12,14,16,18,20,-1,-1,-1,-1,-1,-1,-1,-1,-1,-1],"split_conditions":[4.245E0,1.525E0,7.275E0,-2.9004421E-2,7.59E1,8.35E1,7.6499996E0,1.545E0,3.41E0,5E-1,1.029E2,4.5569865E-3,1.8748062E-2,7.50182E-5,-2.1328788E-2,-8.436089E-3,6.96775E-3,-3.195627E-3,1.4715484E-2,-2.3670947E-2,-2.6444416E-3],"split_indices":[3,3,3,0,2,2,3,3,3,9,2,0,0,0,0,0,0,0,0,0,0],"split_type":[0,0,0,0,0,0,0,0,0,0,0,0,0,0,0,0,0,0,0,0,0],"sum_hessian":[3.2470798E2,2.9218658E2,3.2521393E1,2.022971E2,8.988948E1,1.8800934E1,1.3720461E1,7.9157326E1,1.0732157E1,1.1883306E1,6.9176283E0,1.2442716E0,1.2476189E1,1.868609E0,7.728871E1,7.098912E0,3.633245E0,4.9461184E0,6.9371877E0,4.444875E0,2.472753E0],"tree_param":{"num_deleted":"0","num_feature":"19","num_nodes":"21","size_leaf_vector":"0"}},{"base_weights":[-1.1327933E0,-1.3038653E0,3.3508164E-1,-1.3765061E0,-5.796242E-1,-1.4901132E-2,7.727731E-1,-1.4199476E0,-9.267891E-1,-1.0854472E0,-2.0695455E-1,-5.7872427E-1,2.9675943E-1,1.000918E0,1.6100146E-1,-3.674256E-1,-1.0505574E0,3.1713828E-1,-4.5156842E-1,-7.885227E-1,-2.6304549E-2,4.7090417E-1,-6.020474E-1,3.6429945E-1,1.1468318E0,-1.0551803E0,1.0354013E0],"categories":[],"categories_nodes":[],"categories_segments":[],"categories_sizes":[],"default_left":[true,true,true,true,true,true,true,false,true,false,true,true,true,true,true,false,false,false,false,false,false,false,false,false,false,false,false],"id":22,"left_children":[1,3,5,7,9,11,13,-1,15,-1,17,19,21,23,25,-1,-1,-1,-1,-1,-1,-1,-1,-1,-1,-1,-1],"loss_changes":[8.142212E1,1.3974213E1,5.342799E0,3.124878E0,5.1066475E0,3.9108505E0,1.9182329E0,0E0,1.3116627E0,0E0,2.5840564E0,8.855605E-1,2.6761389E0,3.9367008E-1,8.00993E0,0E0,0E0,0E0,0E0,0E0,0E0,0E0,0E0,0E0,0E0,0E0,0E0],"parents":[2147483647,0,0,1,1,2,2,3,3,4,4,5,5,6,6,8,8,10,10,11,11,12,12,13,13,14,14],"right_children":[2,4,6,8,10,12,14,-1,16,-1,18,20,22,24,26,-1,-1,-1,-1,-1,-1,-1,-1,-1,-1,-1,-1],"split_conditions":[4.275E0,1.05E1,7.2650003E0,2.48E0,1.245E0,5.5E0,1.214E1,-2.8398952E-2,5E-1,-2.1708943E-2,1.5E0,6.05E0,6.54E0,3.5E0,1.3835E1,-7.348512E-3,-2.1011148E-2,6.3427654E-3,-9.031368E-3,-1.5770454E-2,-5.2609097E-4,9.418083E-3,-1.2040948E-2,7.285989E-3,2.2936635E-2,-2.1103606E-2,2.0708026E-2],"split_indices":[3,5,3,3,3,5,3,0,15,0,0,3,3,5,3,0,0,0,0,0,0,0,0,0,0,0,0],"split_type":[0,0,0,0,0,0,0,0,0,0,0,0,0,0,0,0,0,0,0,0,0,0,0,0,0,0,0],"sum_hessian":[3.2013593E2,2.8687048E2,3.3265446E1,2.5949268E2,2.737779E1,1.9289938E1,1.3975508E1,2.3368332E2,2.5809362E1,1.0397019E1,1.6980772E1,6.4093914E0,1.2880547E1,9.484393E0,4.4911146E0,5.754629E0,2.0054733E1,5.2620144E0,1.1718758E1,4.1805873E0,2.228804E0,1.1388191E1,1.492356E0,2.7464964E0,6.737897E0,1.7487285E0,2.742386E0],"tree_param":{"num_deleted":"0","num_feature":"19","num_nodes":"27","size_leaf_vector":"0"}},{"base_weights":[-1.0987406E0,-1.2541152E0,4.1382954E-1,-1.4331268E0,-8.721523E-1,-3.9423487E-1,6.49484E-1,-1.4424723E0,-1.5055032E-1,-1.1434224E0,-4.2681172E-1,-9.654203E-1,2.3336996E-1,4.2475775E-1,9.701312E-1,-1.464875E0,-9.580838E-1,-1.2932642E0,-8.110781E-1,-5.7595164E-1,3.4348723E-2,5.9676975E-1,-3.072429E-1,8.383097E-1,1.9189757E-1,-6.3064665E-4,1.1647291E0],"categories":[],"categories_nodes":[],"categories_segments":[],"categories_sizes":[],"default_left":[true,true,true,true,true,true,true,true,false,true,true,false,true,true,true,false,false,false,false,false,false,false,false,false,false,false,false],"id":23,"left_children":[1,3,5,7,9,11,13,15,-1,17,19,-1,21,23,25,-1,-1,-1,-1,-1,-1,-1,-1,-1,-1,-1,-1],"loss_changes":[7.635019E1,1.8089417E1,6.3028946E0,2.0292358E0,1.0986877E1,3.1883202E0,1.1567535E0,9.521484E-3,0E0,1.3841934E0,2.7198467E0,0E0,1.2566416E0,1.410222E0,1.6977224E0,0E0,0E0,0E0,0E0,0E0,0E0,0E0,0E0,0E0,0E0,0E0,0E0],"parents":[2147483647,0,0,1,1,2,2,3,3,4,4,5,5,6,6,7,7,9,9,10,10,12,12,13,13,14,14],"right_children":[2,4,6,8,10,12,14,16,-1,18,20,-1,22,24,26,-1,-1,-1,-1,-1,-1,-1,-1,-1,-1,-1,-1],"split_conditions":[4.575E0,1.415E0,3.5E0,1.35E1,7.5E0,7.245E0,9.68E0,1.05E1,-3.0110064E-3,2.4650002E0,1.15E1,-1.9308405E-2,2.5E0,5.5E0,4.5E0,-2.9297499E-2,-1.9161675E-2,-2.5865283E-2,-1.622156E-2,-1.15190325E-2,6.8697444E-4,1.1935395E-2,-6.144858E-3,1.6766194E-2,3.8379512E-3,-1.2612933E-5,2.3294581E-2],"split_indices":[3,3,5,5,5,3,3,5,0,3,5,0,5,5,5,0,0,0,0,0,0,0,0,0,0,0,0],"split_type":[0,0,0,0,0,0,0,0,0,0,0,0,0,0,0,0,0,0,0,0,0,0,0,0,0,0,0],"sum_hessian":[3.2006094E2,2.904786E2,2.9582329E1,1.9497377E2,9.550485E1,6.451294E0,2.3131035E1,1.9337772E2,1.5960549E0,5.7890663E1,3.761419E1,2.954762E0,3.496532E0,1.5649845E1,7.4811907E0,1.8192744E2,1.1450273E1,3.691158E1,2.0979086E1,2.8140226E1,9.473961E0,1.9977981E0,1.4987339E0,4.232673E0,1.14171715E1,1.4989144E0,5.9822764E0],"tree_param":{"num_deleted":"0","num_feature":"19","num_nodes":"27","size_leaf_vector":"0"}},{"base_weights":[-1.0810927E0,-1.1443686E0,-4.2592743E-1,-1.1738868E0,-2.3066662E-1,-6.0085595E-1,-1.791991E-1,-1.1802294E0,-8.0595054E-2,-6.3653445E-1,1.2278503E-1,-6.3490033E-1,-1.3836327E-1,-6.705839E-1,1.4967335E-2,-1.249266E0,-1.0620779E0,2.1390826E-1,-8.508315E-2,-1.345211E-1,3.458115E-1],"categories":[],"categories_nodes":[],"categories_segments":[],"categories_sizes":[],"default_left":[true,true,true,true,true,true,true,true,false,false,true,false,false,false,true,false,false,false,false,false,false],"id":24,"left_children":[1,3,5,7,9,11,13,15,-1,-1,17,-1,-1,-1,19,-1,-1,-1,-1,-1,-1],"loss_changes":[1.2332916E1,7.320526E0,1.1394954E0,1.7792053E0,1.6711881E0,1.3591385E-1,1.4121475E0,2.5650024E-1,0E0,0E0,1.6079117E-1,0E0,0E0,0E0,6.614341E-1,0E0,0E0,0E0,0E0,0E0,0E0],"parents":[2147483647,0,0,1,1,2,2,3,3,4,4,5,5,6,6,7,7,10,10,14,14],"right_children":[2,4,6,8,10,12,14,16,-1,-1,18,-1,-1,-1,20,-1,-1,-1,-1,-1,-1],"split_conditions":[5E-1,5E-1,5E-1,5E-1,5E-1,5E-1,5E-1,5E-1,-1.611901E-3,-1.2730689E-2,5E-1,-1.2698006E-2,-2.7672653E-3,-1.3411677E-2,5E-1,-2.498532E-2,-2.1241557E-2,4.278165E-3,-1.7016629E-3,-2.6904219E-3,6.9162296E-3],"split_indices":[8,16,7,18,9,11,15,9,0,0,7,0,0,0,9,0,0,0,0,0,0],"split_type":[0,0,0,0,0,0,0,0,0,0,0,0,0,0,0,0,0,0,0,0,0],"sum_hessian":[3.136284E2,2.849845E2,2.8643887E1,2.7565213E2,9.332363E0,1.5500914E1,1.3142972E1,2.7394357E2,1.7085524E0,3.7848563E0,5.547507E0,1.3917285E1,1.5836289E0,2.6800299E0,1.0462942E1,1.6384686E2,1.1009671E2,3.8264983E0,1.7210085E0,7.8197646E0,2.6431775E0],"tree_param":{"num_deleted":"0","num_feature":"19","num_nodes":"21","size_leaf_vector":"0"}},{"base_weights":[-1.0341904E0,-1.2213694E0,6.3629705E-1,-1.3663676E0,-8.7982136E-1,7.3651654E-1,-3.8751525E-1,-3.2733744E-1,-1.3706847E0,1.4498036E-1,-9.067655E-1,-3.2156298E-1,8.1484777E-1,2.4671282E-1,-8.113578E-1,-9.4229794E-1,-2.8508237E-1,1.4974762E-1,9.4042754E-1],"categories":[],"categories_nodes":[],"categories_segments":[],"categories_sizes":[],"default_left":[true,true,true,true,true,true,true,false,false,false,true,false,true,false,false,false,false,false,false],"id":25,"left_children":[1,3,5,7,9,11,13,-1,-1,-1,15,-1,17,-1,-1,-1,-1,-1,-1],"loss_changes":[1.0216925E2,1.2607758E1,3.8689375E0,2.3110962E-1,2.7080536E0,2.967434E0,1.3682013E0,0E0,0E0,0E0,1.5588455E0,0E0,2.2397385E0,0E0,0E0,0E0,0E0,0E0,0E0],"parents":[2147483647,0,0,1,1,2,2,3,3,4,4,5,5,6,6,10,10,12,12],"right_children":[2,4,6,8,10,12,14,-1,-1,-1,16,-1,18,-1,-1,-1,-1,-1,-1],"split_conditions":[4.495E0,1.495E0,8.35E1,2.75E-1,2.6E1,4.15E1,7.835E1,-6.546749E-3,-2.7413694E-2,2.899607E-3,8.995E1,-6.431259E-3,5.025E0,4.9342564E-3,-1.6227156E-2,-1.8845959E-2,-5.701647E-3,2.9949525E-3,1.8808551E-2],"split_indices":[3,3,1,3,1,2,2,0,0,0,2,0,3,0,0,0,0,0,0],"split_type":[0,0,0,0,0,0,0,0,0,0,0,0,0,0,0,0,0,0,0],"sum_hessian":[3.2152512E2,2.894908E2,3.203431E1,2.0005864E2,8.943217E1,2.9561499E1,2.4728112E0,1.304614E0,1.9875403E2,2.1227772E0,8.730939E1,1.7165804E0,2.7844917E1,1.2416725E0,1.2311387E0,8.185725E1,5.452143E0,4.9447947E0,2.2900124E1],"tree_param":{"num_deleted":"0","num_feature":"19","num_nodes":"19","size_leaf_vector":"0"}},{"base_weights":[-1.039215E0,-1.2358006E0,4.7416225E-1,-1.3311658E0,-6.467571E-1,1.6112253E-1,8.3432704E-1,-1.3513292E0,-6.730944E-1,-8.119335E-1,1.3850293E-2,-5.8170563E-1,3.893405E-1,5.7439864E-1,1.2092556E0,-7.771065E-1,4.8910793E-2,-9.992505E-1,6.065823E-2,-3.2619652E-1,7.279871E-1,1.541809E-1,-8.926367E-1,-6.000202E-2,5.7693547E-1,1.0822761E0,3.455781E-1],"categories":[],"categories_nodes":[],"categories_segments":[],"categories_sizes":[],"default_left":[true,true,true,true,true,true,true,false,true,true,true,true,true,true,false,false,false,false,false,false,false,false,false,false,false,false,false],"id":26,"left_children":[1,3,5,7,9,11,13,-1,15,17,19,21,23,25,-1,-1,-1,-1,-1,-1,-1,-1,-1,-1,-1,-1,-1],"loss_changes":[9.305383E1,1.4135162E1,3.9364462E0,1.7529907E0,4.5106106E0,3.9837036E0,5.8635616E-1,0E0,8.059678E-1,5.4799843E0,2.7147574E0,1.4999603E0,1.5137403E0,9.177098E-1,0E0,0E0,0E0,0E0,0E0,0E0,0E0,0E0,0E0,0E0,0E0,0E0,0E0],"parents":[2147483647,0,0,1,1,2,2,3,3,4,4,5,5,6,6,8,8,9,9,10,10,11,11,12,12,13,13],"right_children":[2,4,6,8,10,12,14,-1,16,18,20,22,24,26,-1,-1,-1,-1,-1,-1,-1,-1,-1,-1,-1,-1,-1],"split_conditions":[4.225E0,9.5E0,7.27E0,3.395E0,5E-1,3.5E0,8.5E0,-2.7026584E-2,8.5E0,2.8249998E0,1.25E1,5E-1,5E-1,7.795E0,2.4185112E-2,-1.554213E-2,9.782158E-4,-1.9985009E-2,1.2131647E-3,-6.5239305E-3,1.4559742E-2,3.083618E-3,-1.7852735E-2,-1.2000405E-3,1.15387095E-2,2.1645522E-2,6.911562E-3],"split_indices":[3,5,3,3,4,5,5,0,5,3,5,6,15,3,0,0,0,0,0,0,0,0,0,0,0,0,0],"split_type":[0,0,0,0,0,0,0,0,0,0,0,0,0,0,0,0,0,0,0,0,0,0,0,0,0,0,0],"sum_hessian":[3.083228E2,2.7312003E2,3.5202805E1,2.3343713E2,3.9682877E1,1.9995026E1,1.5207778E1,2.2496402E2,8.473121E0,3.1470482E1,8.212395E0,4.153245E0,1.584178E1,1.1224295E1,3.9834833E0,7.306124E0,1.1669966E0,2.5729477E1,5.741007E0,6.115333E0,2.0970619E0,1.4582275E0,2.6950176E0,4.9663076E0,1.0875472E1,1.7485673E0,9.475727E0],"tree_param":{"num_deleted":"0","num_feature":"19","num_nodes":"27","size_leaf_vector":"0"}},{"base_weights":[-1.0096617E0,-1.3721073E0,-1.0196797E-1,-6.3531405E-1,2.6705974E-1,-8.574053E-1,-3.5917005E-1,8.159558E-1,1.9863874E-1,-7.99634E-3,-9.1802627E-1,-1.5482381E-1,-8.3340675E-1,-5.624373E-1,2.8330255E-1],"categories":[],"categories_nodes":[],"categories_segments":[],"categories_sizes":[],"default_left":[true,false,true,true,true,true,true,false,true,false,false,false,false,false,false],"id":27,"left_children":[1,-1,3,5,7,9,11,-1,13,-1,-1,-1,-1,-1,-1],"loss_changes":[1.0346887E2,0E0,1.8273186E1,1.861414E0,1.8286972E0,1.0144625E0,1.6930668E0,0E0,3.5274389E0,0E0,0E0,0E0,0E0,0E0,0E0],"parents":[2147483647,0,0,2,2,3,3,4,4,5,5,6,6,8,8],"right_children":[2,-1,4,6,8,10,12,-1,14,-1,-1,-1,-1,-1,-1],"split_conditions":[5E-1,-2.7442144E-2,4.35E1,2.1385E1,4.88E1,6.2E0,3.93E1,1.6319117E-2,5.35E1,-1.599268E-4,-1.8360525E-2,-3.0964762E-3,-1.6668135E-2,-1.1248746E-2,5.6660506E-3],"split_indices":[12,0,2,2,2,2,2,0,2,0,0,0,0,0,0],"split_type":[0,0,0,0,0,0,0,0,0,0,0,0,0,0,0],"sum_hessian":[3.13643E2,2.235937E2,9.004929E1,3.638321E1,5.366609E1,1.8415222E1,1.7967987E1,4.131725E0,4.9534363E1,1.3398175E0,1.7075405E1,1.3947698E1,4.02029E0,4.1113195E0,4.5423042E1],"tree_param":{"num_deleted":"0","num_feature":"19","num_nodes":"15","size_leaf_vector":"0"}},{"base_weights":[-1.0085076E0,-1.3514316E0,-1.4563061E-1,-1.3701929E0,-3.628122E-1,-4.0441802E-1,6.334157E-1,-2.1288411E-1,-1.3743575E0,1.9008973E-1,-8.716949E-1,-1.0181283E0,-1.9464853E-1,2.34636E-1,7.495295E-1,3.241292E-1,-4.274866E-2,-1.1796926E0,-2.7793223E-1,1.6520047E-1,-4.2018008E-1,6.440355E-1,-8.2657087E-1,9.9912745E-1,3.8123268E-1],"categories":[],"categories_nodes":[],"categories_segments":[],"categories_sizes":[],"default_left":[true,true,true,true,true,true,true,false,false,true,false,true,true,true,true,false,false,false,false,false,false,false,false,false,false],"id":28,"left_children":[1,3,5,7,9,11,13,-1,-1,15,-1,17,19,21,23,-1,-1,-1,-1,-1,-1,-1,-1,-1,-1],"loss_changes":[9.320282E1,3.4448853E0,1.8840103E1,6.2719727E-1,2.0064924E0,8.667042E0,8.2022953E-1,0E0,0E0,1.5267335E-1,0E0,1.5870419E0,4.4662504E0,4.0408754E0,1.0325947E0,0E0,0E0,0E0,0E0,0E0,0E0,0E0,0E0,0E0,0E0],"parents":[2147483647,0,0,1,1,2,2,3,3,4,4,5,5,6,6,9,9,11,11,12,12,13,13,14,14],"right_children":[2,4,6,8,10,12,14,-1,-1,16,-1,18,20,22,24,-1,-1,-1,-1,-1,-1,-1,-1,-1,-1],"split_conditions":[5E-1,3.04E0,5.6899996E0,2.75E-1,5E-1,1.195E0,7.2650003E0,-4.2576822E-3,-2.748715E-2,3.46E0,-1.7433899E-2,5E-1,2.84E0,6.87E0,1.0764999E1,6.482584E-3,-8.5497316E-4,-2.3593852E-2,-5.5586444E-3,3.3040093E-3,-8.403601E-3,1.288071E-2,-1.6531417E-2,1.9982548E-2,7.6246536E-3],"split_indices":[12,3,3,3,7,3,3,0,0,3,0,4,3,3,3,0,0,0,0,0,0,0,0,0,0],"split_type":[0,0,0,0,0,0,0,0,0,0,0,0,0,0,0,0,0,0,0,0,0,0,0,0,0],"sum_hessian":[3.144771E2,2.2443356E2,9.004355E1,2.196856E2,4.7479663E0,6.813234E1,2.1911211E1,1.0680145E0,2.1861758E2,2.7259274E0,2.0220392E0,1.5883267E1,5.2249073E1,5.9630156E0,1.5948196E1,1.3567576E0,1.3691696E0,1.2306469E1,3.5767984E0,2.0284773E1,3.19643E1,4.728492E0,1.234524E0,7.974536E0,7.97366E0],"tree_param":{"num_deleted":"0","num_feature":"19","num_nodes":"25","size_leaf_vector":"0"}},{"base_weights":[-1.0445472E0,-1.2284452E0,3.3327132E-1,-1.3578699E0,-9.4582856E-1,4.2736357E-1,-7.682633E-1,-2.5887182E-1,-9.959437E-1,1.4665413E-1,8.826709E-1,-5.5019164E-1,2.164594E-1,-1.0944802E0,-7.1370375E-1,-1.486171E-2,4.2910802E-1,9.77405E-1,1.4102976E-1],"categories":[],"categories_nodes":[],"categories_segments":[],"categories_sizes":[],"default_left":[true,true,true,false,true,true,false,true,true,true,true,false,false,false,false,false,false,false,false],"id":29,"left_children":[1,3,5,-1,7,9,-1,11,13,15,17,-1,-1,-1,-1,-1,-1,-1,-1],"loss_changes":[7.8552826E1,8.011566E0,4.3689275E0,0E0,2.7215118E0,4.332991E0,0E0,1.3093479E0,1.1538315E0,1.0912731E0,7.21385E-1,0E0,0E0,0E0,0E0,0E0,0E0,0E0,0E0],"parents":[2147483647,0,0,1,1,2,2,4,4,5,5,7,7,8,8,9,9,10,10],"right_children":[2,4,6,-1,8,10,-1,12,14,16,18,-1,-1,-1,-1,-1,-1,-1,-1],"split_conditions":[4.225E0,1.465E0,8.45E1,-2.7157396E-2,3.85E1,7.23E0,-1.5365265E-2,3.15E1,5E-1,5E-1,7.45E1,-1.1003832E-2,4.329188E-3,-2.1889603E-2,-1.4274075E-2,-2.972342E-4,8.58216E-3,1.95481E-2,2.8205952E-3],"split_indices":[3,3,1,0,1,3,0,1,4,4,1,0,0,0,0,0,0,0,0],"split_type":[0,0,0,0,0,0,0,0,0,0,0,0,0,0,0,0,0,0,0],"sum_hessian":[3.060986E2,2.701978E2,3.5900784E1,1.8141269E2,8.878514E1,3.3921295E1,1.9794875E0,6.665515E0,8.211963E1,2.2210846E1,1.1710448E1,3.986216E0,2.679299E0,5.766923E1,2.4450397E1,1.5034648E1,7.176199E0,9.961204E0,1.7492443E0],"tree_param":{"num_deleted":"0","num_feature":"19","num_nodes":"19","size_leaf_vector":"0"}},{"base_weights":[-1.0151583E0,-1.336245E0,-1.9749705E-1,-1.3474137E0,-3.4386906E-1,-9.628309E-1,5.423247E-2,1.6620651E-1,-7.1807367E-1,-1.0340258E0,-3.6027354E-1,-1.0910789E-1,6.036135E-1,-1.1414148E0,-2.519898E-1,5.183363E-1,-8.592881E-1,4.467276E-1,-2.8523985E-1,8.221782E-1,3.161718E-1],"categories":[],"categories_nodes":[],"categories_segments":[],"categories_sizes":[],"default_left":[true,true,true,false,true,true,true,false,false,true,true,true,true,false,false,false,false,false,false,false,false],"id":30,"left_children":[1,3,5,-1,7,9,11,-1,-1,13,15,17,19,-1,-1,-1,-1,-1,-1,-1,-1],"loss_changes":[7.965982E1,1.7288513E0,1.698185E1,0E0,1.0279913E0,3.762226E-1,6.150859E0,0E0,0E0,1.1382446E0,2.68722E0,5.4050064E0,5.955491E-1,0E0,0E0,0E0,0E0,0E0,0E0,0E0,0E0],"parents":[2147483647,0,0,1,1,2,2,4,4,5,5,6,6,9,9,10,10,11,11,12,12],"right_children":[2,4,6,-1,8,10,12,-1,-1,14,16,18,20,-1,-1,-1,-1,-1,-1,-1,-1],"split_conditions":[5E-1,3.41E0,1.4449999E0,-2.6948273E-2,5E-1,5E-1,7.29E0,3.32413E-3,-1.4361473E-2,1.195E0,8.65E-1,2.3600001E0,1.0575E1,-2.2828294E-2,-5.0397962E-3,1.0366726E-2,-1.718576E-2,8.934552E-3,-5.704797E-3,1.6443564E-2,6.323436E-3],"split_indices":[12,3,3,0,7,4,3,0,0,3,3,3,3,0,0,0,0,0,0,0,0],"split_type":[0,0,0,0,0,0,0,0,0,0,0,0,0,0,0,0,0,0,0,0,0],"sum_hessian":[3.0342737E2,2.1718846E2,8.623889E1,2.1424063E2,2.947827E0,2.0295906E1,6.5942986E1,1.6002709E0,1.3475564E0,1.719066E1,3.1052456E0,5.1756878E1,1.4186106E1,1.4508976E1,2.6816845E0,1.1037699E0,2.0014758E0,1.1899638E1,3.9857243E1,6.4733844E0,7.7127213E0],"tree_param":{"num_deleted":"0","num_feature":"19","num_nodes":"21","size_leaf_vector":"0"}},{"base_weights":[-9.897303E-1,-1.2294003E0,-2.6877524E-2,-1.3394934E0,-1.0254881E0,-3.5646448E-1,6.2518066E-1,-1.0473388E0,-1.0478172E-1,1.6969797E-1,-4.4643542E-1,-4.7131327E-1,7.312168E-1,-5.840056E-1,-1.1150124E0,-2.2180445E-1,6.8474494E-2,-3.520181E-1,6.380149E-1,-7.715024E-1,-1.0951714E-1,8.1572026E-1,-2.303542E-1],"categories":[],"categories_nodes":[],"categories_segments":[],"categories_sizes":[],"default_left":[true,true,true,false,true,true,true,true,true,true,true,false,true,false,false,false,false,false,false,false,false,false,false],"id":31,"left_children":[1,3,5,-1,7,9,11,13,15,17,19,-1,21,-1,-1,-1,-1,-1,-1,-1,-1,-1,-1],"loss_changes":[6.753662E1,3.2032776E0,1.320858E1,0E0,1.617981E0,2.0426025E0,2.918807E0,1.7318954E0,9.822199E-2,2.0562375E0,3.729557E0,0E0,1.860199E0,0E0,0E0,0E0,0E0,0E0,0E0,0E0,0E0,0E0,0E0],"parents":[2147483647,0,0,1,1,2,2,4,4,5,5,6,6,7,7,8,8,9,9,10,10,12,12],"right_children":[2,4,6,-1,8,10,12,14,16,18,20,-1,22,-1,-1,-1,-1,-1,-1,-1,-1,-1,-1],"split_conditions":[2.755E0,1.185E0,6.0299997E0,-2.6789866E-2,5E-1,3.555E1,3.1E1,1.87E1,1.615E0,3E1,6.265E1,-9.426265E-3,1.719E2,-1.1680111E-2,-2.2300247E-2,-4.436089E-3,1.3694898E-3,-7.0403614E-3,1.2760298E-2,-1.5430047E-2,-2.1903429E-3,1.6314404E-2,-4.607084E-3],"split_indices":[3,3,3,0,17,2,2,2,3,2,2,0,2,0,0,0,0,0,0,0,0,0,0],"split_type":[0,0,0,0,0,0,0,0,0,0,0,0,0,0,0,0,0,0,0,0,0,0,0],"sum_hessian":[2.913766E2,2.3297101E2,5.8405563E1,1.4586452E2,8.710649E1,3.92476E1,1.9157963E1,8.4885635E1,2.220857E0,5.5370364E0,3.3710567E1,1.2336657E0,1.7924297E1,1.2659035E1,7.22266E1,1.0746729E0,1.1461841E0,2.7953978E0,2.7416384E0,1.6172308E1,1.7538258E1,1.6685486E1,1.2388111E0],"tree_param":{"num_deleted":"0","num_feature":"19","num_nodes":"23","size_leaf_vector":"0"}},{"base_weights":[-1.0120139E0,-1.3558373E0,-1.3352248E-1,-8.555945E-1,7.606997E-2,-6.338713E-1,-1.1393616E0,-2.2486059E-2,5.9839356E-1,-8.4372854E-1,1.2856112E-1,1.120263E-1,-3.3347273E-1,8.153455E-1,2.3765457E-1],"categories":[],"categories_nodes":[],"categories_segments":[],"categories_sizes":[],"default_left":[true,false,true,true,true,true,false,true,true,false,false,false,false,false,false],"id":32,"left_children":[1,-1,3,5,7,9,-1,11,13,-1,-1,-1,-1,-1,-1],"loss_changes":[9.06496E1,0E0,1.3163898E1,1.4643097E-1,3.5357006E0,2.4592285E0,0E0,2.5197814E0,5.619924E-1,0E0,0E0,0E0,0E0,0E0,0E0],"parents":[2147483647,0,0,2,2,3,3,4,4,5,5,7,7,8,8],"right_children":[2,-1,4,6,8,10,-1,12,14,-1,-1,-1,-1,-1,-1],"split_conditions":[5E-1,-2.7116746E-2,2.15E1,2.015E1,1.029E2,1.775E1,-2.2787232E-2,7.455E1,1.244E2,-1.687457E-2,2.5712224E-3,2.2405258E-3,-6.6694543E-3,1.630691E-2,4.7530914E-3],"split_indices":[12,0,2,2,2,2,0,2,2,0,0,0,0,0,0],"split_type":[0,0,0,0,0,0,0,0,0,0,0,0,0,0,0],"sum_hessian":[2.9951752E2,2.146808E2,8.4836716E1,1.8045265E1,6.679145E1,1.2853085E1,5.192179E0,5.7396805E1,9.394646E0,9.953479E0,2.8996062E0,4.0736526E1,1.666028E1,4.6860785E0,4.708567E0],"tree_param":{"num_deleted":"0","num_feature":"19","num_nodes":"15","size_leaf_vector":"0"}},{"base_weights":[-9.4816077E-1,-1.3026305E0,-8.5039E-2,-1.306792E0,-2.559032E-1,-4.085791E-1,3.99211E-1,-1.310615E0,-3.1227365E-1,1.5509781E-1,-5.339957E-1,5.548616E-1,-9.300462E-1,4.3311095E-1,-4.217434E-1,-7.5027573E-1,-3.469787E-2,1.1349146E0,3.5628676E-1],"categories":[],"categories_nodes":[],"categories_segments":[],"categories_sizes":[],"default_left":[true,true,true,true,false,true,true,false,false,true,true,true,false,false,false,false,false,false,false],"id":33,"left_children":[1,3,5,7,-1,9,11,-1,-1,13,15,17,-1,-1,-1,-1,-1,-1,-1],"loss_changes":[9.249713E1,4.3310547E-1,1.4310483E1,1.9735718E-1,0E0,3.9813652E0,8.370768E0,0E0,0E0,2.052898E0,4.8169727E0,3.2875595E0,0E0,0E0,0E0,0E0,0E0,0E0,0E0],"parents":[2147483647,0,0,1,1,2,2,3,3,5,5,6,6,9,9,10,10,11,11],"right_children":[2,4,6,8,-1,10,12,-1,-1,14,16,18,-1,-1,-1,-1,-1,-1,-1],"split_conditions":[5E-1,9.65E1,6.255E1,5E-1,-5.118064E-3,4.85E1,8.45E1,-2.6212297E-2,-6.245473E-3,3.35E1,4.35E1,4.45E1,-1.8600924E-2,8.662219E-3,-8.4348675E-3,-1.5005514E-2,-6.9395744E-4,2.2698293E-2,7.1257353E-3],"split_indices":[12,1,2,17,0,1,1,0,0,2,2,1,0,0,0,0,0,0,0],"split_type":[0,0,0,0,0,0,0,0,0,0,0,0,0,0,0,0,0,0,0],"sum_hessian":[3.0137018E2,2.1309273E2,8.827745E1,2.1187769E2,1.2150365E0,5.3060642E1,3.521681E1,2.105914E2,1.2862833E0,9.592546E0,4.3468098E1,3.230759E1,2.9092214E0,6.725089E0,2.8674576E0,2.9803965E1,1.3664131E1,6.435635E0,2.5871954E1],"tree_param":{"num_deleted":"0","num_feature":"19","num_nodes":"19","size_leaf_vector":"0"}},{"base_weights":[-9.572881E-1,-1.1666416E0,1.0033671E-1,-1.2848804E0,-8.39272E-1,-2.2282588E-1,6.525372E-1,-8.7043065E-1,2.9932128E-3,3.7671873E-1,-4.84533E-1,9.0491587E-1,1.5241292E-1,-9.74124E-1,-6.484151E-1,5.3403836E-1,-6.057714E-1,-4.7178723E-2,8.96384E-1,-7.543535E-1,-1.5514453E-1,4.7721767E-1,-4.2675593E-1],"categories":[],"categories_nodes":[],"categories_segments":[],"categories_sizes":[],"default_left":[true,true,true,false,true,true,true,true,true,true,true,false,true,false,false,false,false,false,false,false,false,false,false],"id":34,"left_children":[1,3,5,-1,7,9,11,13,15,17,19,-1,21,-1,-1,-1,-1,-1,-1,-1,-1,-1,-1],"loss_changes":[6.637311E1,8.047363E0,9.280323E0,0E0,1.856144E0,5.4757056E0,2.2076693E0,6.195183E-1,1.7824805E0,2.4685256E0,1.9339256E0,0E0,1.8517284E0,0E0,0E0,0E0,0E0,0E0,0E0,0E0,0E0,0E0,0E0],"parents":[2147483647,0,0,1,1,2,2,4,4,5,5,6,6,7,7,8,8,9,9,10,10,12,12],"right_children":[2,4,6,-1,8,10,12,14,16,18,20,-1,22,-1,-1,-1,-1,-1,-1,-1,-1,-1,-1],"split_conditions":[3.0749998E0,1.465E0,6.0299997E0,-2.5697608E-2,5E-1,3.54E0,5E-1,2.1950002E0,5E-1,3.375E0,4.5150003E0,1.8098317E-2,1.116E1,-1.948248E-2,-1.2968302E-2,1.0680767E-2,-1.2115428E-2,-9.435744E-4,1.792768E-2,-1.508707E-2,-3.1028904E-3,9.544353E-3,-8.535119E-3],"split_indices":[3,3,3,0,16,3,8,3,11,3,3,0,3,0,0,0,0,0,0,0,0,0,0],"split_type":[0,0,0,0,0,0,0,0,0,0,0,0,0,0,0,0,0,0,0,0,0,0,0],"sum_hessian":[2.9747156E2,2.4818877E2,4.9282803E1,1.7911063E2,6.9078125E1,3.1653208E1,1.7629595E1,6.656545E1,2.5126727E0,9.418097E0,2.2235111E1,1.0909992E1,6.719602E0,4.190982E1,2.4655634E1,1.4403418E0,1.0723308E0,5.938119E0,3.4799776E0,1.1158947E1,1.1076163E1,4.4743686E0,2.2452335E0],"tree_param":{"num_deleted":"0","num_feature":"19","num_nodes":"23","size_leaf_vector":"0"}},{"base_weights":[-9.5817226E-1,-1.104126E0,-1.01202615E-1,-1.2546109E0,-4.4613114E-1,7.016795E-1,-2.6128352E-1,-1.3141377E0,-9.355466E-1,-5.4296756E-1,2.930739E-1,-2.2696462E-2,8.3011806E-1,-5.495924E-1,2.2025825E-1,-1.1653799E0,-5.3665596E-1,-6.8291324E-1,1.0072429E-1,1.0282371E0,-2.8337044E-1,1.1298006E-1,-6.776397E-1,-6.383914E-1,3.9300108E-1],"categories":[],"categories_nodes":[],"categories_segments":[],"categories_sizes":[],"default_left":[true,true,true,true,true,true,true,false,true,true,true,false,false,true,true,false,false,false,false,false,false,false,false,false,false],"id":35,"left_children":[1,3,5,7,9,11,13,-1,15,17,19,-1,-1,21,23,-1,-1,-1,-1,-1,-1,-1,-1,-1,-1],"loss_changes":[3.6771057E1,2.4132446E1,6.01107E0,2.0384827E0,3.765522E0,7.5638604E-1,5.4993496E0,0E0,2.4859924E0,4.0747824E0,3.26832E0,0E0,0E0,2.1839314E0,2.6628406E0,0E0,0E0,0E0,0E0,0E0,0E0,0E0,0E0,0E0,0E0],"parents":[2147483647,0,0,1,1,2,2,3,3,4,4,5,5,6,6,8,8,9,9,10,10,13,13,14,14],"right_children":[2,4,6,8,10,12,14,-1,16,18,20,-1,-1,22,24,-1,-1,-1,-1,-1,-1,-1,-1,-1,-1],"split_conditions":[6.255E1,8.5E0,4.35E1,6.5E0,1.35E1,7.05E1,7.5E0,-2.6282754E-2,2.82E1,4.475E1,2.3E1,-4.539292E-4,1.6602362E-2,6.68E1,5.1E1,-2.3307597E-2,-1.0733119E-2,-1.3658265E-2,2.0144857E-3,2.0564742E-2,-5.6674085E-3,2.2596011E-3,-1.3552794E-2,-1.2767827E-2,7.860022E-3],"split_indices":[2,5,1,5,5,2,5,0,2,2,2,0,0,2,1,0,0,0,0,0,0,0,0,0,0],"split_type":[0,0,0,0,0,0,0,0,0,0,0,0,0,0,0,0,0,0,0,0,0,0,0,0,0],"sum_hessian":[2.938255E2,2.5069594E2,4.312956E1,2.0292616E2,4.776977E1,6.3261213E0,3.680344E1,1.6707704E2,3.5849125E1,4.258881E1,5.18096E0,1.138736E0,5.1873856E0,2.288797E1,1.3915469E1,2.0915611E1,1.4933513E1,3.4908024E1,7.6807847E0,1.7603176E0,3.4206426E0,3.735481E0,1.9152489E1,1.6534196E0,1.226205E1],"tree_param":{"num_deleted":"0","num_feature":"19","num_nodes":"25","size_leaf_vector":"0"}},{"base_weights":[-8.968211E-1,-1.0609152E0,-2.6428068E-2,-1.1789663E0,-3.7935564E-1,-5.341468E-1,1.2708321E-1,-1.2520819E0,-7.7448756E-1,-5.081749E-1,3.6635613E-1,-7.185136E-1,3.362539E-1,-7.8836955E-2,5.1859593E-1,3.0000407E-1,-8.510511E-1,-7.606841E-1,-7.054619E-2,1.0892719E0,-4.8336107E-1,-3.0066746E-1,-1.0103221E0,6.349742E-1,-2.0918193E-1,1.6123466E-1,1.0643075E0],"categories":[],"categories_nodes":[],"categories_segments":[],"categories_sizes":[],"default_left":[true,true,true,true,true,true,true,false,true,true,true,true,false,true,true,false,false,false,false,false,false,false,false,false,false,false,false],"id":36,"left_children":[1,3,5,7,9,11,13,-1,15,17,19,21,-1,23,25,-1,-1,-1,-1,-1,-1,-1,-1,-1,-1,-1,-1],"loss_changes":[4.0871857E1,1.87182E1,3.763273E0,4.598938E0,3.9093552E0,2.1588347E0,3.067088E0,0E0,3.28446E0,3.5497227E0,4.7444572E0,7.2903013E-1,0E0,2.5936172E0,2.2872486E0,0E0,0E0,0E0,0E0,0E0,0E0,0E0,0E0,0E0,0E0,0E0,0E0],"parents":[2147483647,0,0,1,1,2,2,3,3,4,4,5,5,6,6,8,8,9,9,10,10,11,11,13,13,14,14],"right_children":[2,4,6,8,10,12,14,-1,16,18,20,22,-1,24,26,-1,-1,-1,-1,-1,-1,-1,-1,-1,-1,-1,-1],"split_conditions":[6.255E1,9.5E0,3.5E0,3.7765E1,1.35E1,1.1795E2,5E-1,-2.5041636E-2,3.805E1,5E-1,2.6E1,8.185E1,6.725078E-3,6.605E1,9.5E0,6.000081E-3,-1.702102E-2,-1.5213681E-2,-1.4109237E-3,2.1785438E-2,-9.667221E-3,-6.013349E-3,-2.0206442E-2,1.2699483E-2,-4.1836384E-3,3.2246932E-3,2.1286149E-2],"split_indices":[2,5,5,2,5,2,4,0,2,6,2,2,0,2,5,0,0,0,0,0,0,0,0,0,0,0,0],"split_type":[0,0,0,0,0,0,0,0,0,0,0,0,0,0,0,0,0,0,0,0,0,0,0,0,0,0,0],"sum_hessian":[2.8495892E2,2.3948143E2,4.5477493E1,2.0319235E2,3.628907E1,9.6945915E0,3.5782898E1,1.6942322E2,3.3769135E1,3.1351078E1,4.9379907E0,8.216038E0,1.478554E0,2.4234478E1,1.1548422E1,1.9550107E0,3.1814125E1,1.9178123E1,1.2172956E1,2.4395797E0,2.498411E0,4.630736E0,3.5853019E0,2.8453252E0,2.1389153E1,8.152749E0,3.3956726E0],"tree_param":{"num_deleted":"0","num_feature":"19","num_nodes":"27","size_leaf_vector":"0"}},{"base_weights":[-9.203443E-1,-1.2531434E0,-1.5396833E-1,-1.2570593E0,-3.491438E-1,-9.714464E-1,5.953726E-2,-1.3538E-1,5.114486E-1,-1.9891718E-1,8.4468734E-1,6.4042115E-1,1.6485049E-1],"categories":[],"categories_nodes":[],"categories_segments":[],"categories_sizes":[],"default_left":[true,true,true,false,false,false,true,true,true,false,false,false,false],"id":37,"left_children":[1,3,5,-1,-1,-1,7,9,11,-1,-1,-1,-1],"loss_changes":[7.2713745E1,4.736328E-2,1.5511029E1,0E0,0E0,0E0,6.4006605E0,3.435918E0,8.1861687E-1,0E0,0E0,0E0,0E0],"parents":[2147483647,0,0,1,1,2,2,6,6,7,7,8,8],"right_children":[2,4,6,-1,-1,-1,8,10,12,-1,-1,-1,-1],"split_conditions":[5E-1,5E-1,1.195E0,-2.5141187E-2,-6.982876E-3,-1.9428927E-2,5.6499996E0,5E-1,1.0865E1,-3.9783437E-3,1.6893746E-2,1.2808423E-2,3.2970097E-3],"split_indices":[12,17,3,0,0,0,3,17,3,0,0,0,0],"split_type":[0,0,0,0,0,0,0,0,0,0,0,0,0],"sum_hessian":[2.847316E2,1.9785867E2,8.687294E1,1.96422E2,1.4366771E0,1.6887705E1,6.998524E1,4.9629715E1,2.035552E1,4.7730907E1,1.8988103E0,1.3908452E1,6.447069E0],"tree_param":{"num_deleted":"0","num_feature":"19","num_nodes":"13","size_leaf_vector":"0"}},{"base_weights":[-9.350855E-1,-1.0156219E0,-6.924378E-1,-7.2563E-1,-1.0918916E0,-1.4355482E-3,-7.3149174E-1,-8.072341E-1,-2.0780201E-1,-4.399325E-1,3.6330247E-1,-7.516815E-1,5.6349766E-2,-3.6877885E-2,-8.7663287E-1,-3.9729372E-1,2.3080227E-1,4.9508908E-1,3.9626896E-2,-5.68698E-1,-8.6615556E-1],"categories":[],"categories_nodes":[],"categories_segments":[],"categories_sizes":[],"default_left":[true,true,true,true,false,true,true,true,true,false,true,true,false,false,false,false,false,false,false,false,false],"id":38,"left_children":[1,3,5,7,-1,9,11,13,15,-1,17,19,-1,-1,-1,-1,-1,-1,-1,-1,-1],"loss_changes":[4.3458405E0,3.329773E0,1.9841652E0,1.7349339E0,0E0,1.109675E0,1.171318E0,2.09486E0,8.3733857E-1,0E0,1.322769E-1,6.8569183E-1,0E0,0E0,0E0,0E0,0E0,0E0,0E0,0E0,0E0],"parents":[2147483647,0,0,1,1,2,2,3,3,5,5,6,6,7,7,8,8,10,10,11,11],"right_children":[2,4,6,8,-1,10,12,14,16,-1,18,20,-1,-1,-1,-1,-1,-1,-1,-1,-1],"split_conditions":[5E-1,4.65E1,4.35E1,5E-1,-2.1837832E-2,3.5E1,5E-1,1.95E1,5E-1,-8.79865E-3,4.05E1,6.85E1,1.1269953E-3,-7.375577E-4,-1.7532658E-2,-7.945874E-3,4.6160454E-3,9.901782E-3,7.9253793E-4,-1.13739595E-2,-1.732311E-2],"split_indices":[7,1,1,4,0,1,17,1,9,0,1,1,0,0,0,0,0,0,0,0,0],"split_type":[0,0,0,0,0,0,0,0,0,0,0,0,0,0,0,0,0,0,0,0,0],"sum_hessian":[2.7486545E2,2.0278227E2,7.208318E1,4.5511234E1,1.5727104E2,3.9392345E0,6.814395E1,3.8591328E1,6.9199066E0,1.6483308E0,2.2909038E0,6.65084E1,1.6355464E0,3.3790867E0,3.5212242E1,4.930881E0,1.9890256E0,1.0635117E0,1.227392E0,2.904025E1,3.746815E1],"tree_param":{"num_deleted":"0","num_feature":"19","num_nodes":"21","size_leaf_vector":"0"}},{"base_weights":[-9.019109E-1,-9.575082E-1,-4.7336498E-1,-9.654215E-1,4.991631E-2,-5.080894E-1,2.2397833E-1,-8.2878184E-1,-1.0137458E0,-6.644848E-1,-3.5106495E-1,-9.430329E-1,-6.926405E-1,-7.6174587E-1,-3.530561E-1],"categories":[],"categories_nodes":[],"categories_segments":[],"categories_sizes":[],"default_left":[true,true,true,true,false,true,false,true,false,true,false,false,false,false,false],"id":39,"left_children":[1,3,5,7,-1,9,-1,11,-1,13,-1,-1,-1,-1,-1],"loss_changes":[6.102127E0,2.0692291E0,1.0340691E0,3.8134766E-1,0E0,4.954214E-1,0E0,1.5840912E-1,0E0,6.806755E-2,0E0,0E0,0E0,0E0,0E0],"parents":[2147483647,0,0,1,1,2,2,3,3,5,5,7,7,9,9],"right_children":[2,4,6,8,-1,10,-1,12,-1,14,-1,-1,-1,-1,-1],"split_conditions":[5E-1,5E-1,5E-1,5E-1,9.983261E-4,1.5E0,4.4795666E-3,5E-1,-2.0274915E-2,5E-1,-7.0212986E-3,-1.8860659E-2,-1.385281E-2,-1.5234917E-2,-7.061122E-3],"split_indices":[8,18,18,15,0,0,0,9,0,9,0,0,0,0,0],"split_type":[0,0,0,0,0,0,0,0,0,0,0,0,0,0,0],"sum_hessian":[2.8314688E2,2.4899242E2,3.4154465E1,2.4711389E2,1.8785342E0,3.2922184E1,1.2322813E0,7.1674835E1,1.7543906E2,1.406547E1,1.8856714E1,3.4136703E1,3.753813E1,9.065351E0,5.00012E0],"tree_param":{"num_deleted":"0","num_feature":"19","num_nodes":"15","size_leaf_vector":"0"}},{"base_weights":[-9.0271676E-1,-9.1680753E-1,1.7035136E-1,-9.421736E-1,-2.3957676E-1,5.53544E-1,-4.4614834E-1,-9.5744616E-1,-4.647879E-3,6.4483684E-1,-4.7207096E-1,3.1553715E-1,-2.6725185E-1,-7.7221996E-1,-3.4328126E-3],"categories":[],"categories_nodes":[],"categories_segments":[],"categories_sizes":[],"default_left":[true,true,true,true,true,false,false,false,true,false,true,false,false,false,false],"id":40,"left_children":[1,3,5,7,9,-1,-1,-1,11,-1,13,-1,-1,-1,-1],"loss_changes":[4.5185394E0,4.469864E0,1.5368502E0,3.8491364E0,2.9481397E0,0E0,0E0,0E0,6.161689E-1,0E0,1.4674551E0,0E0,0E0,0E0,0E0],"parents":[2147483647,0,0,1,1,2,2,3,3,4,4,8,8,10,10],"right_children":[2,4,6,8,10,-1,-1,-1,12,-1,14,-1,-1,-1,-1],"split_conditions":[5E-1,5E-1,6.7E1,5E-1,5.1E1,1.1070879E-2,-8.922966E-3,-1.9148923E-2,7E1,1.2896736E-2,5E-1,6.310743E-3,-5.3450367E-3,-1.5444399E-2,-6.865625E-5],"split_indices":[18,16,1,17,1,0,0,0,1,0,6,0,0,0,0],"split_type":[0,0,0,0,0,0,0,0,0,0,0,0,0,0,0],"sum_hessian":[2.8184503E2,2.7840762E2,3.4374158E0,2.6779053E2,1.061708E1,2.2142806E0,1.2231354E0,2.6346674E2,4.323813E0,1.6562655E0,8.960814E0,1.8120635E0,2.5117493E0,4.870017E0,4.090797E0],"tree_param":{"num_deleted":"0","num_feature":"19","num_nodes":"15","size_leaf_vector":"0"}},{"base_weights":[-8.5001177E-1,-1.2218189E0,-4.9939454E-2,-1.2351427E0,-1.8182334E-1,-7.543493E-1,1.943351E-1,-1.2472907E0,-4.6383548E-1,3.329028E-1,-6.349728E-1,-1.0783788E0,7.1683276E-1,-4.8959464E-2,5.500865E-1,-9.25422E-1,5.699428E-1,1.7420408E-1,1.070014E0,-7.2318554E-1,3.7716344E-1,4.385319E-1,9.288946E-1],"categories":[],"categories_nodes":[],"categories_segments":[],"categories_sizes":[],"default_left":[true,true,true,true,true,true,true,false,true,false,false,false,true,true,true,false,false,false,false,false,false,false,false],"id":41,"left_children":[1,3,5,7,9,11,13,-1,15,-1,-1,-1,17,19,21,-1,-1,-1,-1,-1,-1,-1,-1],"loss_changes":[8.295218E1,2.3031921E0,1.5729459E1,8.9242554E-1,1.2894839E0,1.2369782E1,5.9363E0,0E0,3.320663E0,0E0,0E0,0E0,7.065363E-1,1.2427333E1,5.632515E-1,0E0,0E0,0E0,0E0,0E0,0E0,0E0,0E0],"parents":[2147483647,0,0,1,1,2,2,3,3,4,4,5,5,6,6,8,8,12,12,13,13,14,14],"right_children":[2,4,6,8,10,12,14,-1,16,-1,-1,-1,18,20,22,-1,-1,-1,-1,-1,-1,-1,-1],"split_conditions":[5E-1,1.35E1,1.585E0,3.0749998E0,1.5699999E0,1.05E1,5.205E0,-2.4945814E-2,1E1,6.658056E-3,-1.2699456E-2,-2.1567576E-2,1.1800001E0,6.5E0,1.325E1,-1.850844E-2,1.1398856E-2,3.4840815E-3,2.140028E-2,-1.4463711E-2,7.5432686E-3,8.770638E-3,1.857789E-2],"split_indices":[12,5,3,3,3,5,3,0,5,0,0,0,3,5,3,0,0,0,0,0,0,0,0],"split_type":[0,0,0,0,0,0,0,0,0,0,0,0,0,0,0,0,0,0,0,0,0,0,0],"sum_hessian":[2.7766418E2,1.8902867E2,8.863552E1,1.863597E2,2.6689878E0,2.2016058E1,6.661946E1,1.8255872E2,3.8009691E0,1.4359496E0,1.2330382E0,1.8370443E1,3.6456141E0,4.0331055E1,2.6288408E1,2.7363849E0,1.0645843E0,2.3204033E0,1.3252108E0,1.5213712E1,2.5117342E1,2.2808163E1,3.4802458E0],"tree_param":{"num_deleted":"0","num_feature":"19","num_nodes":"23","size_leaf_vector":"0"}},{"base_weights":[-9.0943235E-1,-1.2533622E0,-1.02687195E-1,-1.262426E0,8.5200295E-2,-3.2941875E-1,5.4782826E-1,-1.2709938E0,-2.0735349E-1,-1.1139239E0,-1.924032E-2,2.986843E-1,9.86308E-1,-2.3381396E-1,-1.1540631E0,-2.051018E-1,3.6974335E-1,1.561154E-1,8.278597E-1],"categories":[],"categories_nodes":[],"categories_segments":[],"categories_sizes":[],"default_left":[true,true,true,true,false,true,true,false,false,true,true,true,false,false,false,false,false,false,false],"id":42,"left_children":[1,3,5,7,-1,9,11,-1,-1,13,15,17,-1,-1,-1,-1,-1,-1,-1],"loss_changes":[7.866542E1,2.5772705E0,1.3041039E1,1.3934937E0,0E0,1.5819211E1,2.0643272E0,0E0,0E0,2.4637413E-1,3.5992076E0,1.0721372E0,0E0,0E0,0E0,0E0,0E0,0E0,0E0],"parents":[2147483647,0,0,1,1,2,2,3,3,5,5,6,6,9,9,10,10,11,11],"right_children":[2,4,6,8,-1,10,12,-1,-1,14,16,18,-1,-1,-1,-1,-1,-1,-1],"split_conditions":[5E-1,1.55E1,9.5E0,8.9E1,1.7040059E-3,2.565E1,1.25E1,-2.5419876E-2,-4.1470695E-3,7.65E0,6.5E0,5E-1,1.9726159E-2,-4.676279E-3,-2.3081262E-2,-4.102036E-3,7.3948666E-3,3.1223078E-3,1.6557194E-2],"split_indices":[12,5,5,2,0,2,5,0,0,2,5,8,0,0,0,0,0,0,0],"split_type":[0,0,0,0,0,0,0,0,0,0,0,0,0,0,0,0,0,0,0],"sum_hessian":[2.8271185E2,1.9762878E2,8.508306E1,1.9638432E2,1.2444621E0,6.3641705E1,2.144136E1,1.9449791E2,1.886417E0,1.6931526E1,4.671018E1,1.5280664E1,6.160695E0,1.1850566E0,1.574647E1,3.2087456E1,1.462272E1,1.3567794E1,1.7128712E0],"tree_param":{"num_deleted":"0","num_feature":"19","num_nodes":"19","size_leaf_vector":"0"}},{"base_weights":[-8.0528337E-1,-8.7363654E-1,-2.872521E-1,-8.929472E-1,9.428865E-2,1.6242582E-1,-5.769127E-1,-1.8555836E-1,-9.097738E-1,-4.70399E-1,4.4147936E-1,5.34212E-1,-4.2559583E-2,-8.9970946E-1,-4.7552353E-1,-5.301096E-1,1.2189378E-1,-8.40357E-1,-1.1479504E0,6.2899864E-1,-4.143767E-3,-1.7181462E-2,8.217349E-1,4.672453E-1,-3.2652232E-1,2.2726193E-1,-5.9980863E-1],"categories":[],"categories_nodes":[],"categories_segments":[],"categories_sizes":[],"default_left":[true,true,true,true,true,true,true,true,true,false,true,true,true,false,true,false,false,false,false,false,false,false,false,false,false,false,false],"id":43,"left_children":[1,3,5,7,9,11,13,15,17,-1,19,21,23,-1,25,-1,-1,-1,-1,-1,-1,-1,-1,-1,-1,-1,-1],"loss_changes":[9.197296E0,4.577133E0,4.536848E0,2.52742E0,1.4906796E0,1.1310668E0,4.0888786E-2,8.715166E-1,2.3192444E0,0E0,3.7980276E-1,8.4974074E-1,1.7731429E0,0E0,1.8687515E0,0E0,0E0,0E0,0E0,0E0,0E0,0E0,0E0,0E0,0E0,0E0,0E0],"parents":[2147483647,0,0,1,1,2,2,3,3,4,4,5,5,6,6,7,7,8,8,10,10,11,11,12,12,14,14],"right_children":[2,4,6,8,10,12,14,16,18,-1,20,22,24,-1,26,-1,-1,-1,-1,-1,-1,-1,-1,-1,-1,-1,-1],"split_conditions":[5E-1,5E-1,6.95E1,2.05E1,6.3E1,1.5E0,7.2E1,1.75E1,5E-1,-9.407979E-3,7.8E1,5.55E1,5.85E1,-1.799419E-2,7.45E1,-1.0602191E-2,2.4378756E-3,-1.6807139E-2,-2.2959007E-2,1.2579973E-2,-8.287534E-5,-3.4362922E-4,1.6434697E-2,9.344906E-3,-6.5304465E-3,4.5452383E-3,-1.1996172E-2],"split_indices":[8,17,1,1,1,0,1,1,11,0,1,1,1,0,1,0,0,0,0,0,0,0,0,0,0,0,0],"split_type":[0,0,0,0,0,0,0,0,0,0,0,0,0,0,0,0,0,0,0,0,0,0,0,0,0,0,0],"sum_hessian":[2.688754E2,2.366237E2,3.2251675E1,2.3210919E2,4.5145197E0,1.2893812E1,1.9357862E1,5.812082E0,2.262971E2,1.5161965E0,2.998323E0,3.7262642E0,9.167547E0,1.8039181E0,1.7553946E1,2.2284408E0,3.5836413E0,1.8048653E2,4.581058E1,1.6758612E0,1.3224617E0,1.7604836E0,1.9657806E0,2.933249E0,6.2342987E0,2.4510949E0,1.510285E1],"tree_param":{"num_deleted":"0","num_feature":"19","num_nodes":"27","size_leaf_vector":"0"}},{"base_weights":[-8.574444E-1,-9.1647065E-1,-3.7844273E-1,-9.345638E-1,-7.4586056E-2,4.7965562E-1,-6.2255627E-1,-7.864321E-1,-1.045318E0,-4.3869513E-1,4.044265E-1,1.2723303E-1,7.2240424E-1,-8.9741313E-1,-1.3622238E-1,-8.5863054E-1,-4.2061037E-1,-1.10016E0,-8.502646E-1,-5.319878E-2,-6.9526243E-1,5.5819744E-1,2.8556284E-2,6.751966E-1,-4.0679565E-1,-3.6329395E-1,-1.017119E0,3.8164568E-1,-2.5183183E-1],"categories":[],"categories_nodes":[],"categories_segments":[],"categories_sizes":[],"default_left":[true,true,true,true,true,true,true,true,true,true,true,true,false,true,true,false,false,false,false,false,false,false,false,false,false,false,false,false,false],"id":44,"left_children":[1,3,5,7,9,11,13,15,17,19,21,23,-1,25,27,-1,-1,-1,-1,-1,-1,-1,-1,-1,-1,-1,-1,-1,-1],"loss_changes":[7.329544E0,3.6444397E0,7.363493E0,2.7177277E0,1.4535801E0,5.6013834E-1,3.3395615E0,2.3392487E0,2.2079468E-2,3.9825743E-1,1.9113827E-1,1.9185821E0,0E0,5.051756E-1,8.1979895E-1,0E0,0E0,0E0,0E0,0E0,0E0,0E0,0E0,0E0,0E0,0E0,0E0,0E0,0E0],"parents":[2147483647,0,0,1,1,2,2,3,3,4,4,5,5,6,6,7,7,8,8,9,9,10,10,11,11,13,13,14,14],"right_children":[2,4,6,8,10,12,14,16,18,20,22,24,-1,26,28,-1,-1,-1,-1,-1,-1,-1,-1,-1,-1,-1,-1,-1,-1],"split_conditions":[5E-1,5E-1,5.9E1,6.35E1,5E-1,5.35E1,5E-1,5E-1,5E-1,6.85E1,5E-1,4.4E1,1.4448085E-2,6.75E1,6.65E1,-1.717261E-2,-8.4122075E-3,-2.20032E-2,-1.7005293E-2,-1.0639756E-3,-1.3905249E-2,1.1163948E-2,5.7112565E-4,1.3503931E-2,-8.135913E-3,-7.265879E-3,-2.034238E-2,7.6329135E-3,-5.0366363E-3],"split_indices":[8,17,1,1,6,1,9,4,4,1,9,1,0,1,1,0,0,0,0,0,0,0,0,0,0,0,0,0,0],"split_type":[0,0,0,0,0,0,0,0,0,0,0,0,0,0,0,0,0,0,0,0,0,0,0,0,0,0,0,0,0],"sum_hessian":[2.7613574E2,2.4462167E2,3.1514084E1,2.393134E2,5.308274E0,6.659066E0,2.4855019E1,1.07579216E2,1.3173418E2,3.0875804E0,2.2206933E0,3.6484487E0,3.0106177E0,1.5070097E1,9.784921E0,8.815941E1,1.9419806E1,9.739091E1,3.4343273E1,1.9574715E0,1.130109E0,1.0595883E0,1.161105E0,1.6050248E0,2.043424E0,3.8672094E0,1.1202888E1,1.1558026E0,8.629118E0],"tree_param":{"num_deleted":"0","num_feature":"19","num_nodes":"29","size_leaf_vector":"0"}},{"base_weights":[-8.4372616E-1,-9.0575254E-1,-3.0952582E-1,-8.5313964E-1,-1.0853162E0,-5.0260806E-1,1.1142009E-2,-7.270955E-1,-9.0023476E-1,-1.1210673E0,1.1714527E-1,-7.1391076E-1,-2.6290485E-1,2.7144957E-1,-1.7720102E-1,-7.7354974E-1,-5.0906E-1,-1.4502542E-1,-3.247463E-1,-1.6996263E-1,4.6145347E-1,-2.5126246E-1,1.16373315E-1],"categories":[],"categories_nodes":[],"categories_segments":[],"categories_sizes":[],"default_left":[true,true,true,true,true,true,true,true,false,false,false,false,true,true,true,false,false,false,false,false,false,false,false],"id":45,"left_children":[1,3,5,7,9,11,13,15,-1,-1,-1,-1,17,19,21,-1,-1,-1,-1,-1,-1,-1,-1],"loss_changes":[8.481369E0,8.7783813E-1,1.879961E0,1.612854E-1,2.2973824E0,6.757393E-1,7.0106894E-1,1.8875122E-2,0E0,0E0,0E0,0E0,1.1214614E-2,6.1898685E-1,2.2541809E-1,0E0,0E0,0E0,0E0,0E0,0E0,0E0,0E0],"parents":[2147483647,0,0,1,1,2,2,3,3,4,4,5,5,6,6,7,7,12,12,13,13,14,14],"right_children":[2,4,6,8,10,12,14,16,-1,-1,-1,-1,18,20,22,-1,-1,-1,-1,-1,-1,-1,-1],"split_conditions":[5E-1,5E-1,5E-1,5E-1,5E-1,1.5E0,1.5E0,5E-1,-1.8004695E-2,-2.2421345E-2,2.3429054E-3,-1.4278214E-2,5E-1,5E-1,5E-1,-1.5470995E-2,-1.0181201E-2,-2.9005082E-3,-6.4949263E-3,-3.3992524E-3,9.22907E-3,-5.025249E-3,2.3274662E-3],"split_indices":[8,11,9,15,13,0,0,7,0,0,0,0,7,7,11,0,0,0,0,0,0,0,0],"split_type":[0,0,0,0,0,0,0,0,0,0,0,0,0,0,0,0,0,0,0,0,0,0,0],"sum_hessian":[2.671596E2,2.3843182E2,2.8727777E1,1.9107333E2,4.735849E1,1.739983E1,1.1327948E1,5.8680546E1,1.3239279E2,4.6089706E1,1.2687849E0,7.6705947E0,9.729236E0,4.477605E0,6.8503428E0,4.5223576E1,1.345697E1,5.074371E0,4.654865E0,1.3949981E0,3.0826066E0,5.642956E0,1.2073869E0],"tree_param":{"num_deleted":"0","num_feature":"19","num_nodes":"23","size_leaf_vector":"0"}},{"base_weights":[-8.2262087E-1,-1.0431447E0,-1.9343548E-1,-1.096087E0,4.6747565E-1,-3.9445588E-1,2.4780446E-1,-1.1556538E0,-5.5439836E-1,6.921067E-1,-3.1210253E-1,-5.239812E-1,5.641141E-1,-1.5882514E-1,4.9463922E-1,-1.2144309E0,-9.507141E-1,-1.0280459E0,-3.007791E-1,-2.0174733E-1,9.3728447E-1,-7.434712E-1,-3.0246693E-1,8.894099E-1,-6.6260606E-2,-4.36613E-1,2.503959E-1,7.369202E-1,3.736989E-2],"categories":[],"categories_nodes":[],"categories_segments":[],"categories_sizes":[],"default_left":[true,true,true,true,true,true,true,true,true,true,false,true,true,true,true,false,false,false,false,false,false,false,false,false,false,false,false,false,false],"id":46,"left_children":[1,3,5,7,9,11,13,15,17,19,-1,21,23,25,27,-1,-1,-1,-1,-1,-1,-1,-1,-1,-1,-1,-1,-1,-1],"loss_changes":[3.7038223E1,1.667865E1,6.5050926E0,5.2550964E0,1.6877428E0,6.63E0,2.462327E0,3.4217834E-1,2.1752234E0,1.7107062E0,0E0,1.8347635E0,1.4528191E0,1.2960532E0,1.6093969E0,0E0,0E0,0E0,0E0,0E0,0E0,0E0,0E0,0E0,0E0,0E0,0E0,0E0,0E0],"parents":[2147483647,0,0,1,1,2,2,3,3,4,4,5,5,6,6,7,7,8,8,9,9,11,11,12,12,13,13,14,14],"right_children":[2,4,6,8,10,12,14,16,18,20,-1,22,24,26,28,-1,-1,-1,-1,-1,-1,-1,-1,-1,-1,-1,-1,-1,-1],"split_conditions":[4.385E1,1.25E1,8.5E0,9.5E0,3.9E1,1.18850006E2,1.5E0,2.595E1,1.755E1,1.915E1,-6.2420503E-3,6.255E1,4.5E0,5E-1,7.83E1,-2.4288619E-2,-1.9014282E-2,-2.0560917E-2,-6.015582E-3,-4.0349467E-3,1.8745689E-2,-1.4869424E-2,-6.0493383E-3,1.7788198E-2,-1.3252121E-3,-8.732259E-3,5.007918E-3,1.4738403E-2,7.473978E-4],"split_indices":[2,5,5,5,2,2,0,2,2,2,0,2,5,6,2,0,0,0,0,0,0,0,0,0,0,0,0,0,0],"split_type":[0,0,0,0,0,0,0,0,0,0,0,0,0,0,0,0,0,0,0,0,0,0,0,0,0,0,0,0,0],"sum_hessian":[2.6762286E2,1.9743631E2,7.0186554E1,1.9114879E2,6.2875175E0,4.8328197E1,2.1858353E1,1.7067982E2,2.0468954E1,5.011723E0,1.2757944E0,4.3174385E1,5.153815E0,8.458633E0,1.339972E1,1.26896835E2,4.3783E1,5.540858E0,1.4928096E1,1.1359723E0,3.8757508E0,1.9910934E1,2.326345E1,2.9929576E0,2.1608572E0,4.9786296E0,3.4800038E0,8.159248E0,5.2404714E0],"tree_param":{"num_deleted":"0","num_feature":"19","num_nodes":"29","size_leaf_vector":"0"}},{"base_weights":[-8.184794E-1,-9.716109E-1,2.772914E-2,-1.0853906E0,-7.335353E-1,1.5369594E-1,-7.267198E-1,-7.7703524E-1,2.4806134E-1,-9.519567E-3,5.0777376E-1,-1.6536884E-1,-8.9781E-1,-8.8774616E-1,-6.277043E-1,-1.6340981E-1,5.565879E-1,2.652026E-1,-5.7249856E-1,7.1773887E-1,5.830979E-2],"categories":[],"categories_nodes":[],"categories_segments":[],"categories_sizes":[],"default_left":[true,true,true,false,true,true,true,true,true,true,true,false,false,false,false,false,false,false,false,false,false],"id":47,"left_children":[1,3,5,-1,7,9,11,13,15,17,19,-1,-1,-1,-1,-1,-1,-1,-1,-1,-1],"loss_changes":[3.474283E1,4.9496E0,4.206053E0,0E0,3.618431E0,2.1832495E0,3.863783E-1,4.0449524E-1,7.0080876E-1,4.4415493E0,1.0609815E0,0E0,0E0,0E0,0E0,0E0,0E0,0E0,0E0,0E0,0E0],"parents":[2147483647,0,0,1,1,2,2,4,4,5,5,6,6,7,7,8,8,9,9,10,10],"right_children":[2,4,6,-1,8,10,12,14,16,18,20,-1,-1,-1,-1,-1,-1,-1,-1,-1,-1],"split_conditions":[6.255E1,2.6849998E1,5E-1,-2.170781E-2,5E-1,1.029E2,5E-1,5E-1,5E-1,8.45E1,1.3020001E2,-3.3073768E-3,-1.79562E-2,-1.7754924E-2,-1.2554086E-2,-3.2681962E-3,1.1131757E-2,5.304052E-3,-1.1449971E-2,1.4354777E-2,1.1661957E-3],"split_indices":[2,2,11,0,17,2,15,6,6,2,2,0,0,0,0,0,0,0,0,0,0],"split_type":[0,0,0,0,0,0,0,0,0,0,0,0,0,0,0,0,0,0,0,0,0],"sum_hessian":[2.6630457E2,2.253098E2,4.0994766E1,1.4883902E2,7.647078E1,3.615291E1,4.841861E0,7.352508E1,2.9457016E0,2.5745123E1,1.0407784E1,1.8200557E0,3.0218048E0,3.7962902E1,3.5562176E1,1.5645915E0,1.3811101E0,1.7835272E1,7.909851E0,6.483657E0,3.9241276E0],"tree_param":{"num_deleted":"0","num_feature":"19","num_nodes":"21","size_leaf_vector":"0"}},{"base_weights":[-8.1604946E-1,-1.1959642E0,8.421507E-3,-1.2091641E0,-4.0408224E-1,-2.8688678E-1,5.375334E-1,1.5195243E-1,-6.200625E-1,-1.0006841E0,2.5580786E-2,6.405283E-1,4.1225843E-2,-1.17161445E-1,5.9025E-1,1.4126636E-1,8.028145E-1,6.2087893E-1,-3.7071803E-1],"categories":[],"categories_nodes":[],"categories_segments":[],"categories_sizes":[],"default_left":[true,true,true,false,true,true,true,false,false,false,true,true,true,false,false,false,false,false,false],"id":48,"left_children":[1,3,5,-1,7,9,11,-1,-1,-1,13,15,17,-1,-1,-1,-1,-1,-1],"loss_changes":[8.303505E1,1.1637268E0,1.3527708E1,0E0,7.6915693E-1,1.2437716E1,1.5452051E0,0E0,0E0,0E0,3.3382132E0,1.9018269E0,2.0003662E0,0E0,0E0,0E0,0E0,0E0,0E0],"parents":[2147483647,0,0,1,1,2,2,4,4,5,5,6,6,10,10,11,11,12,12],"right_children":[2,4,6,-1,8,10,12,-1,-1,-1,14,16,18,-1,-1,-1,-1,-1,-1],"split_conditions":[5E-1,1.25E1,8.5E0,-2.4183283E-2,2.345E1,2.99E1,5E-1,3.0390485E-3,-1.2401249E-2,-2.0013683E-2,9.975E1,9.5E0,3.45E1,-2.3432288E-3,1.1805E-2,2.8253272E-3,1.605629E-2,1.2417578E-2,-7.4143605E-3],"split_indices":[12,5,5,0,2,2,14,0,0,0,2,5,2,0,0,0,0,0,0],"split_type":[0,0,0,0,0,0,0,0,0,0,0,0,0,0,0,0,0,0,0],"sum_hessian":[2.635458E2,1.7994951E2,8.359628E1,1.7622165E2,3.7278616E0,5.4092716E1,2.9503569E1,1.1673169E0,2.5605445E0,1.5463741E1,3.8628975E1,2.4072176E1,5.431394E0,3.1783278E1,6.8456964E0,6.5934896E0,1.7478685E1,1.9403315E0,3.4910626E0],"tree_param":{"num_deleted":"0","num_feature":"19","num_nodes":"19","size_leaf_vector":"0"}},{"base_weights":[-8.1665415E-1,-1.1741799E0,-2.6302118E-4,-1.2028159E0,-7.3448874E-2,-2.871301E-1,8.1191605E-1,-1.2164574E0,-3.8038027E-1,6.344143E-1,-3.9411876E-1,-5.795547E-1,5.7288045E-1,2.2628935E-1,1.1109076E0,-6.2442684E-1,2.4464835E-1,-6.579563E-1,-2.3751112E-2,-7.838856E-1,9.871816E-2,1.0086107E0,-1.412386E-1,-5.07548E-1,5.654938E-1],"categories":[],"categories_nodes":[],"categories_segments":[],"categories_sizes":[],"default_left":[true,true,true,true,true,true,true,false,true,false,true,true,true,true,false,false,false,false,false,false,false,false,false,false,false],"id":49,"left_children":[1,3,5,7,9,11,13,-1,15,-1,17,19,21,23,-1,-1,-1,-1,-1,-1,-1,-1,-1,-1,-1],"loss_changes":[7.62704E1,5.5955353E0,1.9241203E1,1.2919312E0,1.783599E0,1.5845819E1,3.3973103E0,0E0,1.0026139E0,0E0,4.8428464E-1,6.53123E0,5.266932E0,2.7129745E0,0E0,0E0,0E0,0E0,0E0,0E0,0E0,0E0,0E0,0E0,0E0],"parents":[2147483647,0,0,1,1,2,2,3,3,4,4,5,5,6,6,8,8,10,10,11,11,12,12,13,13],"right_children":[2,4,6,8,10,12,14,-1,16,-1,18,20,22,24,-1,-1,-1,-1,-1,-1,-1,-1,-1,-1,-1],"split_conditions":[5E-1,1.25E1,5.6549997E0,3.04E0,5E-1,1.05E1,4.5E0,-2.4329146E-2,8.5E0,1.2688286E-2,1.46E0,4.2349997E0,3.28E0,7.335E0,2.2218151E-2,-1.2488537E-2,4.8929667E-3,-1.3159126E-2,-4.750222E-4,-1.5677711E-2,1.974363E-3,2.0172214E-2,-2.824772E-3,-1.015096E-2,1.1309876E-2],"split_indices":[12,5,3,3,9,5,5,0,5,0,3,3,3,3,0,0,0,0,0,0,0,0,0,0,0],"split_type":[0,0,0,0,0,0,0,0,0,0,0,0,0,0,0,0,0,0,0,0,0,0,0,0,0],"sum_hessian":[2.5980823E2,1.802244E2,7.958383E1,1.7551909E2,4.705316E0,5.9527893E1,2.0055943E1,1.7194838E2,3.5707104E0,1.0094342E0,3.6958816E0,4.478803E1,1.4739863E1,7.6693845E0,1.23865595E1,2.5690515E0,1.0016589E0,1.4781525E0,2.217729E0,3.4239697E1,1.0548331E1,8.770087E0,5.9697757E0,2.1890798E0,5.4803042E0],"tree_param":{"num_deleted":"0","num_feature":"19","num_nodes":"25","size_leaf_vector":"0"}},{"base_weights":[-7.66178E-1,-1.1653736E0,1.2338536E-1,-1.1882491E0,-3.2279944E-1,-3.088304E-1,5.2317286E-1,-4.0321603E-1,-1.1982852E0,-5.8297795E-1,2.7323464E-1,3.9681238E-1,-4.7880188E-1,7.9453856E-1,-1.7828566E-1,-6.428622E-1,5.2159432E-2,-1.203694E0,-1.8784486E-1,-7.2340137E-1,-2.0067734E-1,2.9616132E-2,7.85009E-1,-6.4265573E-1,-8.3127946E-2,5.0497586E-1,9.894832E-1,-4.0939388E-1,5.030409E-1],"categories":[],"categories_nodes":[],"categories_segments":[],"categories_sizes":[],"default_left":[true,true,true,true,true,true,true,true,true,true,false,true,true,true,true,false,false,false,false,false,false,false,false,false,false,false,false,false,false],"id":50,"left_children":[1,3,5,7,9,11,13,15,17,19,-1,21,23,25,27,-1,-1,-1,-1,-1,-1,-1,-1,-1,-1,-1,-1,-1,-1],"loss_changes":[9.1502884E1,2.8474884E0,1.423587E1,6.3298035E-1,1.2862177E0,5.065381E0,8.326566E0,5.343968E-1,5.866089E-1,6.0322404E-2,0E0,1.184893E0,2.046358E0,1.0010376E0,2.3741102E0,0E0,0E0,0E0,0E0,0E0,0E0,0E0,0E0,0E0,0E0,0E0,0E0,0E0,0E0],"parents":[2147483647,0,0,1,1,2,2,3,3,4,4,5,5,6,6,7,7,8,8,9,9,11,11,12,12,13,13,14,14],"right_children":[2,4,6,8,10,12,14,16,18,20,-1,22,24,26,28,-1,-1,-1,-1,-1,-1,-1,-1,-1,-1,-1,-1,-1,-1],"split_conditions":[5E-1,1.25E1,6.5E0,1.95E1,5E-1,4.35E1,7.65E1,6.5E0,9.65E1,1.35E1,5.4646926E-3,5E-1,5E-1,5.75E1,5E-1,-1.2857243E-2,1.0431886E-3,-2.4073878E-2,-3.756897E-3,-1.4468027E-2,-4.0135467E-3,5.923226E-4,1.570018E-2,-1.2853114E-2,-1.6625589E-3,1.0099517E-2,1.9789662E-2,-8.187877E-3,1.0060818E-2],"split_indices":[12,5,5,1,4,1,1,5,1,5,0,4,4,1,4,0,0,0,0,0,0,0,0,0,0,0,0,0,0],"split_type":[0,0,0,0,0,0,0,0,0,0,0,0,0,0,0,0,0,0,0,0,0,0,0,0,0,0,0,0,0],"sum_hessian":[2.555676E2,1.7608403E2,7.9483574E1,1.7083064E2,5.253386E0,3.8356792E1,4.112678E1,2.9360335E0,1.678946E2,3.6799052E0,1.5734806E0,7.0571017E0,3.129969E1,2.95111E1,1.1615683E1,1.5190426E0,1.4169909E0,1.6671532E2,1.1792822E0,1.7125268E0,1.9673785E0,4.4563065E0,2.600795E0,2.1471674E1,9.828016E0,1.4040884E1,1.5470217E1,9.120621E0,2.4950612E0],"tree_param":{"num_deleted":"0","num_feature":"19","num_nodes":"29","size_leaf_vector":"0"}},{"base_weights":[-7.654151E-1,-1.161643E0,7.836322E-2,-1.2234752E0,-9.425623E-1,-5.236428E-2,3.725129E-1,-9.875656E-1,-1.959274E-1,-1.7794663E-1,3.288552E-1,4.5195657E-1,7.865862E-2,2.7101776E-2,-3.1850237E-1,-5.062334E-1,9.170769E-2,4.591676E-1,1.9163743E-1,6.546219E-3,1.2398624E-1],"categories":[],"categories_nodes":[],"categories_segments":[],"categories_sizes":[],"default_left":[true,true,true,false,true,true,true,false,true,true,true,false,true,false,false,false,false,false,false,false,false],"id":51,"left_children":[1,3,5,-1,7,9,11,-1,13,15,17,-1,19,-1,-1,-1,-1,-1,-1,-1,-1],"loss_changes":[8.5415146E1,6.2268066E-1,3.2174692E0,0E0,1.2136879E0,2.898761E0,5.465236E-1,0E0,1.3366292E-1,4.0655794E0,1.3758731E-1,0E0,2.2592925E-2,0E0,0E0,0E0,0E0,0E0,0E0,0E0,0E0],"parents":[2147483647,0,0,1,1,2,2,4,4,5,5,6,6,8,8,9,9,10,10,12,12],"right_children":[2,4,6,-1,8,10,12,-1,14,16,18,-1,20,-1,-1,-1,-1,-1,-1,-1,-1],"split_conditions":[5E-1,5E-1,5E-1,-2.4469504E-2,5E-1,5E-1,5E-1,-1.975131E-2,1.5E0,1.5E0,1.5E0,9.039131E-3,1.5E0,5.420355E-4,-6.370047E-3,-1.0124668E-2,1.8341538E-3,9.183352E-3,3.8327484E-3,1.3092438E-4,2.4797246E-3],"split_indices":[12,11,4,0,8,8,8,0,0,0,0,0,0,0,0,0,0,0,0,0,0],"split_type":[0,0,0,0,0,0,0,0,0,0,0,0,0,0,0,0,0,0,0,0,0],"sum_hessian":[2.5357426E2,1.7216338E2,8.141089E1,1.2890506E2,4.3258324E1,5.7215744E1,2.4195139E1,4.0342648E1,2.9156792E0,4.363967E1,1.3576073E1,1.8410744E1,5.784397E0,1.4484755E0,1.4672037E0,1.908676E1,2.4552912E1,5.158123E0,8.41795E0,2.8951266E0,2.8892703E0],"tree_param":{"num_deleted":"0","num_feature":"19","num_nodes":"21","size_leaf_vector":"0"}},{"base_weights":[-7.777771E-1,-1.0007745E0,1.9677985E-1,-1.1335133E0,-6.490698E-1,-1.3676056E-1,7.175615E-1,-6.8050313E-1,-6.435609E-2,6.8051535E-1,-2.255725E-1,4.2061338E-1,1.0478814E0,-7.917074E-1,-4.667222E-1,-4.4426927E-1,4.0595254E-1,-1.4136496E-1,-8.610099E-1,8.176311E-2,6.004639E-1],"categories":[],"categories_nodes":[],"categories_segments":[],"categories_sizes":[],"default_left":[true,true,true,false,true,true,true,true,true,false,true,true,false,false,false,false,false,false,false,false,false],"id":52,"left_children":[1,3,5,-1,7,9,11,13,15,-1,17,19,-1,-1,-1,-1,-1,-1,-1,-1,-1],"loss_changes":[5.3062195E1,8.132385E0,8.218427E0,0E0,9.951267E-1,2.3776402E0,1.141839E0,7.4415207E-1,1.0926527E0,0E0,1.3055854E0,6.689613E-1,0E0,0E0,0E0,0E0,0E0,0E0,0E0,0E0,0E0],"parents":[2147483647,0,0,1,1,2,2,4,4,5,5,6,6,7,7,8,8,10,10,11,11],"right_children":[2,4,6,-1,8,10,12,14,16,-1,18,20,-1,-1,-1,-1,-1,-1,-1,-1,-1],"split_conditions":[3.0749998E0,1.535E0,5.665E0,-2.2670265E-2,5E-1,3.145E0,5E-1,2.205E0,1.5E0,1.3610307E-2,5.34E0,5E-1,2.0957626E-2,-1.5834147E-2,-9.334443E-3,-8.8853855E-3,8.11905E-3,-2.827299E-3,-1.7220197E-2,1.6352622E-3,1.2009278E-2],"split_indices":[3,3,3,0,13,3,7,3,0,0,3,15,0,0,0,0,0,0,0,0,0],"split_type":[0,0,0,0,0,0,0,0,0,0,0,0,0,0,0,0,0,0,0,0,0],"sum_hessian":[2.4130281E2,1.963368E2,4.4966003E1,1.4011926E2,5.6217552E1,2.8084845E1,1.688116E1,5.311636E1,3.1011903E0,1.7732437E0,2.63116E1,1.0685358E1,6.195803E0,3.227339E1,2.0842968E1,1.761394E0,1.3397963E0,2.4851948E1,1.4596524E0,4.4615088E0,6.2238493E0],"tree_param":{"num_deleted":"0","num_feature":"19","num_nodes":"21","size_leaf_vector":"0"}},{"base_weights":[-8.075849E-1,-9.6207184E-1,2.947537E-1,-1.00751E0,6.740835E-1,-6.699831E-2,8.899755E-1,-1.1770612E0,-7.156851E-1,1.0454026E0,2.4867545E-1,-6.0818493E-1,4.4733703E-1,-8.2959545E-1,-1.01917036E-1,5.751698E-1,-3.431954E-1,-2.5521815E-1,-8.185756E-1,7.256281E-1,-1.1552587E-1],"categories":[],"categories_nodes":[],"categories_segments":[],"categories_sizes":[],"default_left":[true,true,true,true,true,true,false,false,true,false,true,true,true,false,false,false,false,false,false,false,false],"id":53,"left_children":[1,3,5,7,9,11,-1,-1,13,-1,15,17,19,-1,-1,-1,-1,-1,-1,-1,-1],"loss_changes":[4.379863E1,1.7652237E1,7.0776396E0,9.537369E0,7.069876E-1,6.415244E0,0E0,0E0,5.7493095E0,0E0,1.3018456E0,5.1476955E-1,1.9943571E0,0E0,0E0,0E0,0E0,0E0,0E0,0E0,0E0],"parents":[2147483647,0,0,1,1,2,2,3,3,4,4,5,5,8,8,10,10,11,11,12,12],"right_children":[2,4,6,8,10,12,-1,-1,14,-1,16,18,20,-1,-1,-1,-1,-1,-1,-1,-1],"split_conditions":[4.575E0,1.35E1,8.5E0,1.385E0,5E-1,6.9700003E0,1.779951E-2,-2.3541223E-2,9.5E0,2.0908052E-2,5E-1,5E-1,1.216E1,-1.6591908E-2,-2.0383408E-3,1.1503396E-2,-6.863908E-3,-5.104363E-3,-1.6371513E-2,1.4512561E-2,-2.3105175E-3],"split_indices":[3,5,5,3,9,3,0,0,5,0,14,6,3,0,0,0,0,0,0,0,0],"split_type":[0,0,0,0,0,0,0,0,0,0,0,0,0,0,0,0,0,0,0,0,0],"sum_hessian":[2.53192E2,2.2223746E2,3.095454E1,2.1679317E2,5.4442987E0,2.0081167E1,1.0873372E1,1.3424576E2,8.254741E1,1.7396873E0,3.7046115E0,9.6517935E0,1.0429375E1,6.9180595E1,1.3366815E1,2.4148378E0,1.2897736E0,4.844279E0,4.8075147E0,6.688621E0,3.7407532E0],"tree_param":{"num_deleted":"0","num_feature":"19","num_nodes":"21","size_leaf_vector":"0"}},{"base_weights":[-7.715586E-1,-1.1540395E0,2.0299306E-2,-1.2135915E0,-9.519109E-1,-4.387126E-1,1.488954E-1,-2.07415E-1,-7.6717794E-1,4.9388862E-1,8.350786E-2,-5.4079556E-1,6.096059E-1,-9.412127E-1,-1.5924397E-1,-3.5319224E-2,9.9242204E-1,-3.2725853E-1,1.6175927E-1],"categories":[],"categories_nodes":[],"categories_segments":[],"categories_sizes":[],"default_left":[true,true,true,false,false,true,true,true,true,true,true,false,false,false,false,false,false,false,false],"id":54,"left_children":[1,3,5,-1,-1,7,9,11,13,15,17,-1,-1,-1,-1,-1,-1,-1,-1],"loss_changes":[7.509219E1,2.7893066E-1,4.949332E0,0E0,0E0,1.1566966E0,1.4116782E0,3.9900317E0,5.1932716E-1,2.7179565E0,1.9025263E0,0E0,0E0,0E0,0E0,0E0,0E0,0E0,0E0],"parents":[2147483647,0,0,1,1,2,2,5,5,6,6,7,7,8,8,9,9,10,10],"right_children":[2,4,6,-1,-1,8,10,12,14,16,18,-1,-1,-1,-1,-1,-1,-1,-1],"split_conditions":[5E-1,5E-1,2.395E1,-2.4271829E-2,-1.9038217E-2,2.03E1,3.425E1,1.775E1,2.17E1,2.965E1,4.35E1,-1.0815911E-2,1.2192118E-2,-1.8824253E-2,-3.1848794E-3,-7.063845E-4,1.984844E-2,-6.54517E-3,3.2351853E-3],"split_indices":[12,11,2,0,0,2,2,2,2,2,2,0,0,0,0,0,0,0,0],"split_type":[0,0,0,0,0,0,0,0,0,0,0,0,0,0,0,0,0,0,0],"sum_hessian":[2.4631902E2,1.6563057E2,8.068845E1,1.22139275E2,4.349129E1,1.6866764E1,6.3821686E1,1.1333312E1,5.5334516E0,8.602723E0,5.5218964E1,8.409143E0,2.9241688E0,3.662621E0,1.8708307E0,4.8490477E0,3.7536755E0,8.072205E0,4.714676E1],"tree_param":{"num_deleted":"0","num_feature":"19","num_nodes":"19","size_leaf_vector":"0"}},{"base_weights":[-7.710138E-1,-9.438296E-1,-6.13585E-2,-1.0811102E0,-1.20108716E-1,-1.8789339E-1,5.483746E-1,-1.1195385E0,-7.9148036E-1,-2.8050482E-1,3.420966E-1,-3.2900342E-1,3.680887E-1,8.9874786E-1,1.5188223E-3,-1.144466E0,-6.6939104E-1,-1.6429038E-1,-8.6949486E-1,-4.8835918E-1,-1.1615732E-1,6.3872176E-1,-4.8412584E-2,-5.851538E-2,-4.1631836E-1,5.7782376E-1,-2.1041615E-1,1.0130365E0,2.2659776E-1,-3.8988963E-1,4.0014216E-1],"categories":[],"categories_nodes":[],"categories_segments":[],"categories_sizes":[],"default_left":[true,true,true,true,true,true,true,true,true,true,true,true,true,true,true,false,false,false,false,false,false,false,false,false,false,false,false,false,false,false,false],"id":55,"left_children":[1,3,5,7,9,11,13,15,17,19,21,23,25,27,29,-1,-1,-1,-1,-1,-1,-1,-1,-1,-1,-1,-1,-1,-1,-1,-1],"loss_changes":[3.0056747E1,2.2144623E1,3.9919498E0,5.534363E-1,2.3612087E0,3.5008402E0,1.7091119E0,4.8590088E-1,1.005661E0,7.015319E-1,1.017174E0,7.790947E-1,1.3073757E0,7.3620796E-2,1.0125856E0,0E0,0E0,0E0,0E0,0E0,0E0,0E0,0E0,0E0,0E0,0E0,0E0,0E0,0E0,0E0,0E0],"parents":[2147483647,0,0,1,1,2,2,3,3,4,4,5,5,6,6,7,7,8,8,9,9,10,10,11,11,12,12,13,13,14,14],"right_children":[2,4,6,8,10,12,14,16,18,20,22,24,26,28,30,-1,-1,-1,-1,-1,-1,-1,-1,-1,-1,-1,-1,-1,-1,-1,-1],"split_conditions":[5.66E1,9.5E0,1.18850006E2,3.79E1,1.25E1,1.05E1,6.5E0,8.5E0,2.5E0,2.15E1,2.44E1,6.615E1,9.05E1,1.331E2,9.5E0,-2.288932E-2,-1.3387821E-2,-3.2858076E-3,-1.7389897E-2,-9.767183E-3,-2.3231464E-3,1.2774435E-2,-9.6825167E-4,-1.1703076E-3,-8.326367E-3,1.15564745E-2,-4.208323E-3,2.0260729E-2,4.531955E-3,-7.7977926E-3,8.002843E-3],"split_indices":[2,5,2,2,5,5,5,5,5,2,2,2,2,2,5,0,0,0,0,0,0,0,0,0,0,0,0,0,0,0,0],"split_type":[0,0,0,0,0,0,0,0,0,0,0,0,0,0,0,0,0,0,0,0,0,0,0,0,0,0,0,0,0,0,0],"sum_hessian":[2.4429019E2,1.960524E2,4.8237797E1,1.6764424E2,2.8408155E1,4.080707E1,7.4307246E0,1.4421194E2,2.343229E1,2.1527338E1,6.880818E0,3.303504E1,7.7720275E0,3.9406846E0,3.49004E0,1.3445282E2,9.759134E0,3.10763E0,2.032466E1,8.199708E0,1.332763E1,3.3686335E0,3.5121844E0,8.672925E0,2.4362118E1,5.705341E0,2.0666866E0,2.7178233E0,1.222861E0,1.7775385E0,1.7125015E0],"tree_param":{"num_deleted":"0","num_feature":"19","num_nodes":"31","size_leaf_vector":"0"}},{"base_weights":[-7.779087E-1,-1.1372786E0,2.6671039E-2,-1.1560575E0,-3.7304303E-1,-7.6453376E-1,2.6548687E-1,-5.5526274E-1,2.1498927E-1,-8.4452474E-1,-2.436052E-1,1.0019406E-1,7.257981E-1,1.8835175E-1,-8.368855E-1,2.7848357E-1,-6.6968364E-1,2.6894525E-1,-5.3514814E-1,1.6981606E-1,8.025029E-1],"categories":[],"categories_nodes":[],"categories_segments":[],"categories_sizes":[],"default_left":[true,true,true,false,true,true,true,true,false,false,true,true,true,false,false,false,false,false,false,false,false],"id":56,"left_children":[1,3,5,-1,7,9,11,13,-1,-1,15,17,19,-1,-1,-1,-1,-1,-1,-1,-1],"loss_changes":[6.8231995E1,1.6930847E0,1.4339135E1,0E0,8.3535844E-1,4.251213E-1,4.3167224E0,1.3033555E0,0E0,0E0,1.2700846E0,4.991204E0,4.407649E-1,0E0,0E0,0E0,0E0,0E0,0E0,0E0,0E0],"parents":[2147483647,0,0,1,1,2,2,4,4,5,5,6,6,7,7,10,10,11,11,12,12],"right_children":[2,4,6,-1,8,10,12,14,-1,-1,16,18,20,-1,-1,-1,-1,-1,-1,-1,-1],"split_conditions":[5E-1,3.045E0,1.4449999E0,-2.3121148E-2,7.5104996E1,1.195E0,7.195E0,3.295E0,4.2997855E-3,-1.6890494E-2,2.335E1,8.35E1,5.84E1,3.767035E-3,-1.673771E-2,5.5696713E-3,-1.3393672E-2,5.3789048E-3,-1.0702963E-2,3.396321E-3,1.6050057E-2],"split_indices":[12,3,3,0,2,3,3,3,0,0,2,2,2,0,0,0,0,0,0,0,0],"split_type":[0,0,0,0,0,0,0,0,0,0,0,0,0,0,0,0,0,0,0,0,0],"sum_hessian":[2.3432376E2,1.6154745E2,7.2776306E1,1.569225E2,4.6249514E0,1.6107986E1,5.6668324E1,3.5946352E0,1.0303159E0,1.3156031E1,2.9519553E0,4.303972E1,1.3628603E1,1.1238742E0,2.470761E0,1.5600169E0,1.3919383E0,3.4690678E1,8.349041E0,2.2367477E0,1.1391855E1],"tree_param":{"num_deleted":"0","num_feature":"19","num_nodes":"21","size_leaf_vector":"0"}},{"base_weights":[-7.158344E-1,-9.06805E-1,4.6714285E-1,-9.8784083E-1,9.892208E-2,1.1484755E-1,8.3297086E-1,-1.1094726E0,-7.175257E-1,-1.41922E-1,7.6393056E-1,-4.0121275E-1,6.041327E-1,8.8191384E-1,9.415242E-2,-1.1275938E0,-4.1915867E-1,-9.361899E-1,-4.3488127E-1,4.9695814E-1,-4.1855356E-1,9.7385067E-1,4.9776018E-2,5.844647E-2,-7.7316535E-1,8.919172E-1,-2.8760552E-1,3.8373405E-1,9.7724056E-1],"categories":[],"categories_nodes":[],"categories_segments":[],"categories_sizes":[],"default_left":[true,true,true,true,true,true,true,true,true,true,true,true,true,true,false,false,false,false,false,false,false,false,false,false,false,false,false,false,false],"id":57,"left_children":[1,3,5,7,9,11,13,15,17,19,21,23,25,27,-1,-1,-1,-1,-1,-1,-1,-1,-1,-1,-1,-1,-1,-1,-1],"loss_changes":[5.5610313E1,1.7264084E1,4.3432407E0,5.20105E0,2.8893602E0,5.280936E0,4.843397E-1,9.347534E-1,3.382267E0,2.7444422E0,6.411042E-1,1.8423581E0,3.1038272E0,1.789751E-1,0E0,0E0,0E0,0E0,0E0,0E0,0E0,0E0,0E0,0E0,0E0,0E0,0E0,0E0,0E0],"parents":[2147483647,0,0,1,1,2,2,3,3,4,4,5,5,6,6,7,7,8,8,9,9,10,10,11,11,12,12,13,13],"right_children":[2,4,6,8,10,12,14,16,18,20,22,24,26,28,-1,-1,-1,-1,-1,-1,-1,-1,-1,-1,-1,-1,-1,-1,-1],"split_conditions":[4.41E0,1.15E1,7.2650003E0,1.505E0,3.04E0,7.5E0,1.6645001E2,1.05E1,6.5E0,2.025E1,3.295E0,5.285E0,8.35E1,6.595E1,1.8830483E-3,-2.2551874E-2,-8.3831735E-3,-1.8723797E-2,-8.697625E-3,9.939162E-3,-8.371071E-3,1.9477013E-2,9.955204E-4,1.1689294E-3,-1.5463307E-2,1.7838344E-2,-5.7521104E-3,7.6746806E-3,1.954481E-2],"split_indices":[3,5,3,3,3,5,2,5,5,2,3,3,2,2,0,0,0,0,0,0,0,0,0,0,0,0,0,0,0],"split_type":[0,0,0,0,0,0,0,0,0,0,0,0,0,0,0,0,0,0,0,0,0,0,0,0,0,0,0,0,0],"sum_hessian":[2.4184448E2,2.0853105E2,3.3313442E1,1.9300635E2,1.5524694E1,1.7974632E1,1.5338808E1,1.298997E2,6.310664E1,1.2263235E1,3.2614589E0,8.879365E0,9.095267E0,1.4113348E1,1.2254602E0,1.2565113E2,4.248579E0,3.3624847E1,2.9481794E1,3.3444772E0,8.918758E0,2.0990095E0,1.1624494E0,4.536927E0,4.342438E0,6.875941E0,2.219326E0,3.4775865E0,1.0635762E1],"tree_param":{"num_deleted":"0","num_feature":"19","num_nodes":"29","size_leaf_vector":"0"}},{"base_weights":[-7.266892E-1,-1.1210996E0,5.8159497E-2,-1.16814E0,-3.4013766E-1,-2.8849256E-1,6.486988E-1,-6.928245E-1,3.8735408E-1,-5.3176254E-1,2.5226173E-1,7.0470184E-1,1.632392E-1,-2.2853108E-1,7.1242833E-1,-7.114249E-1,1.3749453E-1,4.313337E-1,-6.884905E-2,7.4266946E-1,-1.9119358E-2,-2.8376588E-1,3.8427788E-1],"categories":[],"categories_nodes":[],"categories_segments":[],"categories_sizes":[],"default_left":[true,true,true,false,true,true,true,false,true,true,true,true,true,false,false,false,false,false,false,false,false,false,false],"id":58,"left_children":[1,3,5,-1,7,9,11,-1,13,15,17,19,21,-1,-1,-1,-1,-1,-1,-1,-1,-1,-1],"loss_changes":[7.506128E1,5.327713E0,1.7153122E1,0E0,3.2959561E0,7.1697283E0,6.68828E-1,0E0,1.1740081E0,4.597867E0,1.0481795E0,7.714033E-1,6.727227E-1,0E0,0E0,0E0,0E0,0E0,0E0,0E0,0E0,0E0,0E0],"parents":[2147483647,0,0,1,1,2,2,4,4,5,5,6,6,8,8,9,9,10,10,11,11,12,12],"right_children":[2,4,6,-1,8,10,12,-1,14,16,18,20,22,-1,-1,-1,-1,-1,-1,-1,-1,-1,-1],"split_conditions":[5E-1,1.15E1,8.5E0,-2.33628E-2,5E-1,5E-1,5E-1,-1.3856489E-2,5E-1,5E-1,5.5E0,5E-1,1.05E1,-4.5706215E-3,1.4248567E-2,-1.4228498E-2,2.7498906E-3,8.626673E-3,-1.3769809E-3,1.4853389E-2,-3.8238714E-4,-5.6753177E-3,7.6855575E-3],"split_indices":[12,5,5,0,4,4,14,0,11,8,5,13,5,0,0,0,0,0,0,0,0,0,0],"split_type":[0,0,0,0,0,0,0,0,0,0,0,0,0,0,0,0,0,0,0,0,0,0,0],"sum_hessian":[2.4066728E2,1.5974695E2,8.0920334E1,1.4997E2,9.776953E0,5.1472637E1,2.9447699E1,6.6328416E0,3.144111E0,3.5518715E1,1.5953919E1,2.5794588E1,3.6531107E0,1.2401006E0,1.9040103E0,2.792715E1,7.591565E0,9.91166E0,6.042259E0,2.447187E1,1.3227177E0,1.0678761E0,2.5852346E0],"tree_param":{"num_deleted":"0","num_feature":"19","num_nodes":"23","size_leaf_vector":"0"}},{"base_weights":[-7.226354E-1,-1.1147028E0,7.660599E-2,-1.1346333E0,-2.0747817E-1,-7.782616E-1,2.6664203E-1,-2.6096955E-1,-1.1459883E0,2.2046015E-1,-5.029412E-1,-9.578849E-2,-1.1009238E0,1.0233761E0,1.2813567E-1,-5.704142E-1,2.1997689E-1,-1.1514088E0,-2.0354353E-1,-7.5996155E-1,4.9109942E-1,2.6261288E-1,1.1625348E0,8.694331E-3,5.5591017E-1],"categories":[],"categories_nodes":[],"categories_segments":[],"categories_sizes":[],"default_left":[true,true,true,true,true,true,true,true,true,false,false,true,false,true,true,false,false,false,false,false,false,false,false,false,false],"id":59,"left_children":[1,3,5,7,9,11,13,15,17,-1,-1,19,-1,21,23,-1,-1,-1,-1,-1,-1,-1,-1,-1,-1],"loss_changes":[7.497127E1,2.5459747E0,1.330911E1,1.1044617E0,8.342108E-1,3.1303797E0,6.7811546E0,7.762178E-1,4.356842E-1,0E0,0E0,3.0689085E0,0E0,6.0975933E-1,2.9556522E0,0E0,0E0,0E0,0E0,0E0,0E0,0E0,0E0,0E0,0E0],"parents":[2147483647,0,0,1,1,2,2,3,3,4,4,5,5,6,6,7,7,8,8,11,11,13,13,14,14],"right_children":[2,4,6,8,10,12,14,16,18,-1,-1,20,-1,22,24,-1,-1,-1,-1,-1,-1,-1,-1,-1,-1],"split_conditions":[5E-1,3.0749998E0,1.195E0,1.95E1,3.435E0,5.85E1,4.35E1,1.0450001E0,5E-1,4.409203E-3,-1.0058824E-2,4.3E1,-2.2018475E-2,3.3049998E0,7.29E0,-1.1408283E-2,4.3995376E-3,-2.3028174E-2,-4.0708706E-3,-1.5199231E-2,9.821988E-3,5.2522575E-3,2.3250695E-2,1.7388661E-4,1.1118203E-2],"split_indices":[12,3,3,1,3,1,1,3,17,0,0,1,0,3,3,0,0,0,0,0,0,0,0,0,0],"split_type":[0,0,0,0,0,0,0,0,0,0,0,0,0,0,0,0,0,0,0,0,0,0,0,0,0],"sum_hessian":[2.3734354E2,1.5883504E2,7.85085E1,1.5505275E2,3.7822952E0,1.3433877E1,6.507462E1,2.450921E0,1.5260182E2,1.7003461E0,2.0819492E0,4.9369283E0,8.496949E0,8.585341E0,5.648928E1,1.3215739E0,1.1293472E0,1.5139847E2,1.2033587E0,2.108461E0,2.8284676E0,1.9972653E0,6.588076E0,4.5355736E1,1.1133546E1],"tree_param":{"num_deleted":"0",